%YAML:1.0
---
opencv_ml_svm:
   format: 3
   svmType: C_SVC
   kernel:
      type: LINEAR
   C: 1.
   term_criteria: { iterations:100 }
   var_count: 875
   class_count: 12
   class_labels: !!opencv-matrix
      rows: 12
      cols: 1
      dt: i
      data: [ 0, 1, 2, 3, 4, 5, 6, 7, 8, 9, 10, 11 ]
   sv_total: 66
   support_vectors:
      - [ -0.0010329457, 0., 0., 0., 0., 0., 0., 0., 0., 0., 0., 0., 0.,
          0., 0., 0., 0., 0., 0., 0., 0., 0., 0., 0., 0., 0.00150862371,
          0., 0., 0., 0., 0., 0., 0., 0., 0., 0., 0., 0., 0., 0., 0., 0.,
          0., 0., 0., 0., 0., 0., 0., 0., -0.0010329457, 0., 0., 0., 0.,
          0., 0., 0., 0., 0., 0., 0., 0., 0., 0., 0., 0., 0., 0., 0., 0.,
          0., 0., 0., 0., 0.00150862371, -0.0010329457, 0., 0.,
          -0.0010329457, 0., 0., 0., 0., 0., 0., 0.00503654825,
          0.00697677489, -0.000306809758, -0.00757811777, -0.0104117841,
          -0.00724665681, -0.0052288007, -0.00244438834, 0., 0., 0., 0.,
          0., 0., 0.00158427213, 0.00254156953, -0.0010329457,
          -0.0010329457, -0.0010329457, 0.00254156953, 0.00254156953,
          0.00254156953, 0.00757811777, 0.0108802943, 0.00984734856,
          0.00568703609, 0.00289840018, 0.000454011722, 0.000454011722,
          0.000454011722, 0.00408764929, -0.00192662363, -0.00197587768,
          0., 0., 0., 0., 0., 0., 0.00158427213, 0.0015884958,
          0.00150862371, -0.0010329457, 0.00254156953, 0.00254156953,
          0.00542714354, 0.00798839703, 0.0108802943, 0.00724665681,
          0.00568703609, 0.00289840018, 0.000454011722, 0.000454011722,
          0.000454011722, 0.000454011722, 0.00408764929, 0.00565149402,
          0.00628493214, 0.000878790452, 0., 0., 0., 0., 0.,
          -0.00101219618, 0.00446984638, 0.0015884958, 0.00254156953,
          0.00254156953, 0.00757811777, 0.00798839703, 0.00984734856,
          0.00724665681, 0.00568703609, 0.000454011722, 0.000454011722,
          0.000454011722, 0.000454011722, 0.000454011722, 0.000454011722,
          0.00408764929, 0.00565149402, 0.00843590591, 0.00872932095,
          0.00330217695, 0., 0., -0.00183133851, -0.00183133851,
          0.000570550503, 0.00028144446, 0.00158427213, 0.0015884958,
          0.00542714354, 0.00654517207, 0.00984734856, 0.00724665681,
          0.0038514738, 0.000454011722, 0.000454011722, 0.000454011722,
          0.000454011722, 0.000454011722, 0.000454011722, 0.000454011722,
          0.00408764929, 0.00565149402, 0.00660456764, 0.00904895645,
          0.00401240773, -0.000952548056, -0.00183133851, -0.00183133851,
          -0.00183133851, -0.00101641996, -0.00486081699, -0.00231924746,
          0.00447407039, 0.00559209846, 0.00984734856, 0.00541109499,
          0.0038514738, 0.000454011722, 0.000454011722, 0.000454011722,
          0.000454011722, 0.000454011722, 0.000454011722, 0.000454011722,
          0.000454011722, 0.00408764929, 0.00565149402, 0.00660456764,
          0.00904895645, 0.00904895645, 0.00147083844, -0.00183133851,
          -0.00183133851, -0.00183133851, -0.00284775835, -0.00388070405,
          -0.00126501173, 3.78159384e-05, 0.00479370588, 0.00445802137,
          0.00406969897, 0.00289840018, 0.000454011722, -0.00458253687,
          -0.0074744341, -0.00833872519, -0.0108802943, -0.0108802943,
          -0.0108802943, -0.00872932095, 0.000331460848, 0.00565149402,
          0.00660456764, 0.00904895645, 0.00904895645, 0.00401240773,
          -0.00183133851, -0.00183133851, -0.00183133851, 4.20396609e-05,
          -0.00284353457, 3.78159384e-05, 0.00218878989, 0.00218878989,
          0.00549096707, 0.00541109499, 0.0038514738, 0.000747426122,
          -0.0074744341, -0.00528402161, -0.0062617464, -0.00946898572,
          -0.00843590591, -0.0108802943, -0.0108802943, -0.00724665681,
          0.00234931731, 0.00660456764, 0.00904895645, 0.00904895645,
          0.00401240773, -0.000952548056, -0.00183133851, -0.00183133851,
          -0.00276941177, -0.000668191293, -0.000668191293, 0.0040201284,
          0.0040201284, 0.00549519062, 0.00446224492, 0.00445802137,
          -0.0025921599, -0.00399428234, -0.0052288007, -0.00276710326,
          -0.00702459738, -0.00798189454, -0.0104262829, -0.0104262829,
          -0.00679264544, 0.00234931731, 0.00660456764, 0.00904895645,
          0.00904895645, 0.00401240773, 0.00147083844, -0.00183133851,
          -0.00183133851, -0.00288785179, -0.000938073266,
          -0.000938073266, 0.00402435195, 0.0040201284, 0.00732230535,
          0.00705664698, 0.00601947773, 0.000982929254, -0.00278863567,
          -0.00183133851, -0.00286428421, -0.00448302785, -0.00544032501,
          -0.00788471382, -0.00788471382, -0.00679264544, 0.00234931731,
          0.00660456764, 0.00904895645, 0.00904895645, 0.00401240773,
          0.00147083844, -0.00183133851, -0.00183133851, -0.0038409254,
          -0.0038409254, -0.000938073266, 0.00375447026, 0.00402435195,
          0.00705242343, 0.00705242343, 0.00705242343, 0.00307011092,
          -0.00278441212, -0.00286850776, -0.00286428421, -0.00448302785,
          -0.00544032501, -0.00833872519, -0.00833872519, -0.00573803298,
          0.00234931731, 0.00660456764, 0.00904895645, 0.00904895645,
          0.00401240773, 0.00147083844, -0.00183133851, -0.00183133851,
          -0.00124023331, -0.0038409254, -0.0038409254, 0.00375447026,
          0.00375024648, 0.00705242343, 0.00705242343, 0.00705242343,
          0.00307011092, -0.00565498602, -0.00382158137, -0.00546919974,
          -0.0044872514, -0.00589433685, -0.00833872519, -0.0108802943,
          -0.00573803298, 0.00234931731, 0.00660456764, 0.00904895645,
          0.00904895645, 0.00401240773, 0.00147083844, -0.00183133851,
          -0.00183133851, -0.0041258079, -0.00124023331, -0.0038409254,
          0.000851618068, 0.00191890798, 0.00705242343, 0.00522108469,
          0.00522108469, 0.00307011092, -0.00284353457, -0.00642227335,
          -0.00292763044, -0.00494126324, -0.00544032501, -0.00833872519,
          -0.0108802943, -0.00573803298, 0.00234931731, 0.00557162194,
          0.00801601075, 0.00904895645, 0.00401240773, 0.00147083844,
          -0.00183133851, -0.00183133851, -0.0041258079, -0.0041258079,
          -0.00276941177, 0.00192313176, 0.000851618068, 0.00522108469,
          0.00522108469, 0.00522108469, 0.00307011092, -0.000232066013,
          -0.00231924746, -0.00486081699, -0.00748283276, -0.00589433685,
          -0.0108802943, -0.0104262829, -0.00528402161, 0.00234931731,
          0.00557162194, 0.00801601075, 0.00801601075, 0.00401240773,
          0.00147083844, -0.00183133851, -0.00183133851, -0.00317273405,
          -0.00672649965, -0.00694472529, 0.00452382397, 0.00345231011,
          0.00414957106, 0.00522108469, 0.00522108469, 0.00307011092,
          -0.00565920956, -0.00382787129, -0.00486081699, -0.00615055626,
          -0.00544032501, -0.0104262829, -0.0104262829, -0.00239844713,
          0.00131637161, 0.00557162194, 0.00801601075, 0.00801601075,
          0.00401240773, 0.00147083844, -0.00183133851, -0.00183133851,
          -0.00317273405, -0.00317273405, -0.00599165168, 0.000692515343,
          0.00528364861, 0.00598513335, 0.0059809098, 0.00522108469,
          0.00307011092, -0.00565920956, -0.00311764027, -0.00486081699,
          -0.00660456764, -0.00589433685, -0.00833872519, -0.00799472071,
          -0.00285245897, 0.00131214794, 0.00557162194, 0.00801601075,
          0.00801601075, 0.00401240773, 0.00401240773, -0.00183133851,
          -0.00183133851, -0.00317273405, -0.00317273405, -0.00339095946,
          0.00274207909, 0.00528364861, 0.00598513335, 0.00598513335,
          0.00415379507, 0.00307011092, -0.000232066013, -0.00277363532,
          -0.00565920956, -0.00843590591, -0.00589433685, -0.00833872519,
          -0.00799472071, -0.00545315072, 0.00131214794, 0.00557162194,
          0.00801601075, 0.00801601075, 0.00586503651, 0.00297946204,
          -0.00183133851, -0.00183133851, -0.00339095946, -0.00339095946,
          -0.00134139566, 0.00274207909, 0.00268295663, 0.00858582556,
          0.00858160201, 0.00414957106, 0.00199859729, -0.000227842291,
          -0.00154645613, -0.00443625404, -0.00798189454, -0.00544032501,
          -0.00545315072, -0.00799472071, -0.00799472071, 0.00131214794,
          0.00556739839, 0.00801601075, 0.00904895645, 0.00689798221,
          0.00297946204, -0.00286428421, -0.00286428421, -0.00312107755,
          -0.00339095946, -0.00339095946, 0.00347692729, 0.00601849658,
          0.00858582556, 0.00858582556, 0.00415379507, 0.00459928904,
          -0.0038409254, -0.00276941177, -0.00538932765, -0.00843590591,
          -0.00255475077, -0.00788471382, -0.0104262829, -0.00754070841,
          -0.00155842607, 0.00296670641, 0.00984734856, 0.0108802943,
          0.00872932095, 0.00584374648, 0.00150862371, -0.0010329457,
          -0.00312107755, -0.00312107755, -0.00312107755, 0.00347692729,
          0.00601849658, 0.00953889918, 0.00858582556, 0.00858582556,
          0.00462079095, 0.00166261883, -0.00565498602, -0.00565920956,
          -0.00843590591, -0.00255475077, -0.00499913935, -0.0104262829,
          -0.00499913935, -0.00155842607, 0.00201363279, 0.00724243326,
          0.00984312501, 0.00872932095, 0.00584374648, 0.00150862371,
          -0.0010329457, -0.00128973904, -0.00128973904, -0.00312107755,
          0.00191547081, 0.00601849658, 0.00953889918, 0.00953889918,
          0.00953889918, 0.00207922142, -0.00122295553, -0.00122295553,
          -0.00489516137, -0.00798189454, -0.00509632006, -0.00754070841,
          -0.0104262829, -0.00396619365, -0.00155842607, 0.0038449713,
          0.00724243326, 0.00724243326, 0.00769637479, 0.00481080078,
          0.00150862371, -0.0010329457, -0.00128973904, -0.000218225367,
          -0.000218225367, 0.00374680944, 0.00601849658, 0.00932067353,
          0.00953889918, 0.00953889918, 0.00196078117, -0.00144118094,
          -0.00144118094, -0.00511338655, -0.00615055626, -0.00798189454,
          -0.00799472071, -0.00799472071, -0.00396619365,
          -0.000525480427, 0.0038449713, 0.00628935965, 0.00697255135,
          0.00509145902, 0.00509568304, 0.00254156953, -0.0010329457,
          -0.00128973904, -0.000218225367, -0.000218225367,
          0.00481832307, 0.00628837897, 0.00932067353, 0.00932067353,
          0.00953889918, 0.00196078117, -0.00229446916, -0.00229446916,
          -0.00511338655, -0.00615055626, -0.00509632006, -0.0104262829,
          -0.0104262829, -0.00650776271, -0.000255598454, 0.004877917,
          0.00732230535, 0.00705242343, 0.00612440472, 0.00509145902,
          0.00178928231, 0.00150862371, -0.00107151363, -0.000218225367,
          -0.000218225367, 0.00374680944, 0.00628837897, 0.00959055591,
          0.00959055591, 0.00932067353, 0.00557386456, -0.000269881944,
          -0.00229446916, -0.00511338655, -0.00660456764, -0.00509632006,
          -0.00754070841, -0.00754070841, -0.00396619365,
          -0.000255598454, 0.004877917, 0.0073265289, 0.00732230535,
          0.0049014492, 0.00612440472, 0.00178928231, 0.00178928231, 0.,
          -0.000218225367, -0.00128973904, -0.00128973904, 0.00628837897,
          0.00959055591, 0.00959055591, 0.00959055591, 0.0103921872,
          0.00535563892, -0.00155962096, -0.00511338655, -0.00615055626,
          -0.00798189454, -0.00754070841, -0.00499913935, -0.00181521941,
          0.00304657849, 0.004877917, 0.0073265289, 0.00705664698,
          0.00750214141, 0.000836208696, 0.00178928231, 0.00178928231,
          0., -0.000218225367, -0.00128973904, -0.000218225367,
          0.0073598926, 0.0106620695, 0.00959055591, 0.00959055591,
          0.00959055591, 0.00932067353, 0.00932067353, 0.00576690817,
          0.00472973846, 0.00289840018, 0.000454011722, 0.000454011722,
          0.00148695742, 0.00277669635, 0.00460803509, 0.00705242343,
          0.00705242343, 0.0049014492, -0.00101641996, -0.00204936555,
          0.00178928231, -0.000218225367, -0.000218225367,
          -0.000218225367, -0.000218225367, 0.00266734906, 0.0073598926,
          0.00959055591, 0.00959055591, 0.00959055591, 0.00959055591,
          0.0106620695, 0.00576690817, 0.00472973846, 0.00244438834,
          -2.71050543e-18, -2.71050543e-18, 0.0010329457, 0.00537738856,
          0.00705242343, 0.00705242343, 0.0049014492, 0.00206778338,
          0.0018691544, 0.0018691544, 0.00255234609, 0., 0., 0., 0., 0.,
          0.00481832307, 0.0106620695, 0.0106620695, 0.0106620695,
          0.0106620695, 0.0106620695, 0.0086374823, 0.00473396247,
          0.00244438834, -2.71050543e-18, -2.71050543e-18, 0.0010329457,
          0.00408764929, 0.00965311565, 0.0049014492, 0.00201587495,
          -0.00128630188, -0.00101641996, -0.000942296989, 0.00159927248,
          0., 0., 0., 0., -0.00107151363, -0.00107151363, 0.00503654825,
          0.00804662891, 0.0108802943, 0.0106620695, 0.0108802943,
          0.00959055591, 0.00473396247, 0.00289840018, 0.000454011722,
          0.000454011722, 0.00148695742, 0.00430587493, 0.00750214141,
          0.0049014492, -0.00382787129, -0.00101641996, -0.00355798937,
          -0.00382787129, -0.000942296989, 0., 0., 0., 0., 0.,
          -0.00107151363, 0., 0., 0.00757811777, 0.0108802943,
          0.00980878063, 0.00959055591, 0.00568703609, 0.00289840018,
          0.000454011722, 0.000454011722, 0.00148695742, -0.00073067355,
          -0.00122295553, -0.00382364751, -0.00122295553, -0.00382787129,
          -0.00382787129, -0.00382787129, -0.00382787129, 0., 0., 0., 0.,
          0., 0., -0.000218225367, -0.00128973904, -0.00107151363,
          -0.00107151363, -0.00107151363, 0.00159583532, 0.00285337004,
          0.000747426122, -0.00712410593, -0.0104262829, -0.00679264544,
          -0.00679264544, -0.00122295553, -0.00122295553, -0.00382364751,
          -0.0028705739, -0.00382364751, -0.00382787129, -0.000942296989,
          0., 0., 0., 0., 0., 0., -0.000218225367, -0.000218225367,
          -0.00128973904, -0.00128973904, -0.00107151363, -0.00128973904,
          -0.00107151363, -0.00107151363, -0.00107151363, -0.00229446916,
          -0.00251269457, -0.00251269457, -0.00251269457, -0.00229446916,
          -0.00404187292, -0.00382364751, -0.000938073266,
          -0.00382364751, -0.00382787129 ]
      - [ -0.00272345426, 0., 0., 0., -0.00116463029, 0., 0., 0., 0., 0.,
          0., 0., 0., 0., 0., 0., 0., 0., 0., 0., 0., 0., 0., 0., 0.,
          0.000250242854, -0.00272345426, 0., 0., -0.00116463029,
          -0.00116463029, 0., 0., 0., 0., 0., 0., 0., 0., 0., 0., 0., 0.,
          0., 0., 0., 0., 0., 0., 0., -0.00388808455, -0.00272345426, 0.,
          0., -0.00116463029, -0.00116463029, 0., 0., 0., 0., 0., 0., 0.,
          0., 0., 0., 0., 0., 0., 0., 0., 0., 0., 0., 0.,
          -0.000914387463, -0.00465282239, -0.00465282239, 0.,
          -0.00116463029, -0.00116463029, 0., 0., -0.00116463029,
          -0.00116463029, -0.000407929241, 0.00014935949, 0.00133085623,
          -0.000877320417, 0.00272949669, 0.00238095783, 0., 0., 0., 0.,
          0., 0., 0., 0., 0., -0.000914387463, -0.00167912524,
          -0.00465282239, -0.00192936813, -0.00116463029, 0.00180906674,
          -0.00284375553, -0.00208705454, 0.000982317259, 0.0023162188,
          2.16840434e-18, 2.16840434e-18, 2.16840434e-18, 2.16840434e-18,
          2.16840434e-18, 2.16840434e-18, 2.16840434e-18, -0.00502765412,
          0.00162425684, -0.00113958225, 0., 0., 0., 0., 0.,
          -0.00167912524, -0.00167912524, 0.00104432891, -0.00192936813,
          -0.00284375553, -0.00426753191, -0.0029581585, 0.00133085623,
          2.16840434e-18, 2.16840434e-18, 2.16840434e-18, 2.16840434e-18,
          2.16840434e-18, 2.16840434e-18, 2.16840434e-18, 2.16840434e-18,
          2.16840434e-18, 2.16840434e-18, 2.16840434e-18, 0.0021581538,
          -0.0023162188, 0., 0., 0., 0., 0.00104432891, -9.19402082e-05,
          -0.00284375553, -0.00284375553, -0.00426753191, -0.0029581585,
          0.000154219495, 2.16840434e-18, 2.16840434e-18, 2.16840434e-18,
          2.16840434e-18, 2.16840434e-18, 2.16840434e-18, 2.16840434e-18,
          2.16840434e-18, 2.16840434e-18, 2.16840434e-18, 2.16840434e-18,
          2.16840434e-18, 2.16840434e-18, 0.0029581585, -0.0023162188,
          0., 0., 0., 0.00379614439, -0.00113614846, 0.00104432891,
          -0.00167912524, 0.00243924768, -0.0029581585, 0.0023162188,
          2.16840434e-18, 2.16840434e-18, 2.16840434e-18, 2.16840434e-18,
          2.16840434e-18, 2.16840434e-18, 2.16840434e-18, 2.16840434e-18,
          2.16840434e-18, 2.16840434e-18, 2.16840434e-18, 2.16840434e-18,
          2.16840434e-18, -0.0020539572, 0.00162425684, -0.0023162188,
          0., 0., -0.00327688782, -0.00625058496, -0.00230077864,
          0.00182939111, 0.00360387797, 0.00557288574, 0.0023162188,
          0.0023162188, 2.16840434e-18, 2.16840434e-18, 2.16840434e-18,
          2.16840434e-18, 2.16840434e-18, 2.16840434e-18, 2.16840434e-18,
          2.16840434e-18, 2.16840434e-18, 2.16840434e-18, 2.16840434e-18,
          2.16840434e-18, 2.16840434e-18, -0.00243924768, 0.00162425684,
          0., 0., -0.00113614846, 0.00104432891, 0.0026315141,
          0.00259412895, 0.00461972505, 0.00771362474, 0.0023162188,
          0.0023162188, 0.00325666671, 0.00203573424, 0.00419071876,
          0.00297369715, 0., 0., 0., -0.00506075146, -0.0029581585,
          0.0023162188, 2.16840434e-18, 2.16840434e-18, 2.16840434e-18,
          -0.00281065819, 0.00162425684, -0.0023162188, 0.,
          0.00354503514, 0.00104432891, 0.00379614439, 0.00771372346,
          0.00553324586, 0.00771362474, 0.00557288574, 0.00771362474,
          0.00710376864, 0.0022613504, 0.000250242854, -0.00272345426,
          -0.00116463029, 0., 0., 0., -0.00506075146, 0.000982317259,
          0.0023162188, 2.16840434e-18, 2.16840434e-18, -0.0020539572,
          0.00236362894, -0.0023162188, 0., -0.000504851399,
          -0.000504851399, 0.00082244724, 0.00553324586, 0.00553324586,
          0.00866688415, 0.0135310777, 0.00771362474, 0.00359525206,
          -0.00167912524, -0.00272345426, 0.000250242854, -0.00116463029,
          0., 0., 0., 0., 0.00243924768, 0.0023162188, 2.16840434e-18,
          2.16840434e-18, -0.0020539572, 0.0029581585, -0.0023162188, 0.,
          -0.00264559058, 0.00275181537, -0.00135803013, 0.0085078096,
          0.0057843551, 0.0108473618, 0.00866688415, 0.00771362474,
          0.000250144396, -0.00465282239, -0.00465282239, -0.00272345426,
          -0.000914387463, 0.00180906674, 0.00297369715, 0.00297369715,
          -0.00192936813, 0.00461972505, 0.0023162188, 0.0023162188,
          2.16840434e-18, -0.00281065819, 0.0029581585, -0.0023162188,
          0., -0.00264559058, 0.00275181537, 0.000571337936,
          0.00227657915, 0.0025276884, 0.00891799293, 0.00891799293,
          0.00557288574, 0.00300195976, -0.00799793005, -0.00465282239,
          -0.00465282239, -0.00284375553, -0.00284375553, 0.00297369715,
          0.00297369715, -0.00284375553, -0.0029581585, 0.0023162188,
          2.16840434e-18, 2.16840434e-18, -0.00281065819, 0.0029581585,
          -0.0023162188, 0., -0.00268532871, -0.00482606795,
          0.000571337936, 0.00553324586, 0.00503977155, 0.0135708153,
          0.0116414474, 0.0067375158, 0.00300195976, -0.00465282239,
          -0.00465282239, -0.00683329953, -0.00309486478,
          -0.000914387463, 0.000250242854, -0.00581745245, -0.0050242329,
          -0.0029581585, 0.0023162188, 2.16840434e-18, 2.16840434e-18,
          0.00476722512, 0.0029581585, 0., 0., -0.00325666671,
          -0.00268532871, -0.00156940136, 0.00829643849, 0.0104371775,
          0.0124548879, 0.0135708153, 0.0113903387, 0.00395521894,
          -0.00167912524, -0.00465282239, -0.00385960261, -0.00309486478,
          -0.000914387463, -0.00284375553, -0.00799793005, -0.0104216393,
          -0.0029581585, 2.16840434e-18, 2.16840434e-18, 0.00272345426,
          0.00476722512, 0.0029581585, 0., 0., -0.00325666671,
          -0.00325666671, -0.00268532871, 0.00829643849, 0.00829643849,
          0.0103141489, 0.0103141489, 0.0113903387, 0.00667867297,
          0.0016156669, -0.00385960261, -0.00683329953, -0.00799793005,
          -0.00284375553, -0.00799793005, -0.0133953365, -0.0104216393,
          -0.0052743773, 2.16840434e-18, 2.16840434e-18, 0.0122307055,
          0.00476722512, 0.0052743773, 0., 0., -0.00539740594,
          -0.00539740594, -0.00325666671, 0.00718051102, 0.00718051102,
          0.0103141489, 0.00813367125, 0.00813367125, 0.00885915011,
          -0.0041098455, -0.00683329953, -0.00683329953, -0.0101386691,
          -0.00716497237, -0.0133953365, -0.0133953365, -0.00998604298,
          -0.0052743773, 2.16840434e-18, 0.00539740594, 0.0122307055,
          0.00708344439, 0.00410974724, 0., 0., -0.00325666671,
          -0.00539740594, -0.00325666671, 0.00420681387, 0.00718051102,
          0.0124548879, 0.00813367125, 0.0103141489, 0.0077432231,
          -0.00218047737, -0.00385960261, -0.0133953365, -0.0133953365,
          -0.0104216393, -0.0127378581, -0.0129597392, -0.00998604298,
          -0.0052743773, 2.16840434e-18, 0.0095072519, 0.0145469243,
          0.00708344439, 0.00824807491, 0., 0., -0.00325666671,
          -0.00325666671, -0.00539740594, 0.00420681387, 0.00718051102,
          0.0124548879, 0.0102744112, 0.0103141489, 0.0077432231,
          -0.00436445419, -0.0106435204, -0.0133953365, -0.0133953365,
          -0.0127378581, -0.0127378581, -0.0129597392, -0.00998604298,
          -0.00201771059, 0.00539740594, 0.0118234707, 0.0126175564,
          0.00907052215, 0.00631870655, 0., 0., -0.00325666671,
          -0.00325666671, -0.00325666671, 0.00420681387, 0.00718051102,
          0.0124548879, 0.0124548879, 0.0102744112, 0.000698552176,
          -0.00766982371, -0.0106435204, -0.0157115553, -0.0157115553,
          -0.0127378581, -0.00998604298, -0.0129597392, -0.00970307272,
          0.000123028643, 0.00771362474, 0.00771362474, 0.0137821864,
          0.00907052215, 0.00631870655, -0.00192936813, -0.00116463029,
          -0.00325666671, 0., 0., 0.00420681387, 0.00538831064,
          0.0103141489, 0.0103141489, 0.00541021721, -0.00239544618,
          -0.0106435204, -0.0129597392, -0.0157115553, -0.0157115553,
          -0.00998604298, -0.0127378581, -0.0124548879, -0.0044683353,
          0.00553324586, 0.00887825526, 0.00771362474, 0.0110587329,
          0.00907052215, 0.00359525206, 0.00180906674, -0.00309399841,
          0., 0., -0.00325666671, 0.00420681387, 0.00752904965,
          0.0103141489, 0.00759069482, 0.0023162188, -0.00514726155,
          -0.0129597392, -0.0157115553, -0.0157115553, -0.0157115553,
          -0.00882141199, -0.00556474552, -0.00272345426, 0.00300205825,
          0.00553324586, 0.0108076232, 0.00989410188, 0.0118234707,
          0.00983525906, 0.00515407603, 0.00180906674, -0.00192936813,
          0., 0., -0.00325666671, 0.00420681387, 0.00752904965,
          0.0103141489, 0.0023162188, 0.0023162188, -0.0104371775,
          -0.0157115553, -0.0157115553, -0.0157115553, -0.0126175564,
          -0.00714228721, 0.000571337936, 0., 0.00300205825, 0.004186593,
          0.00887825526, 0.00989410188, 0.0145469243, 0.00765478192,
          0.00824807491, 0.00104432891, -0.00192936813, 0., 0., 0.,
          0.00420681387, 0.00752904965, 0.00566132646, 0.0023162188,
          0.0023162188, -0.0104371775, -0.0157115553, -0.0137821864,
          -0.00989410188, -0.00557288574, -0.00325666671, -0.00268532871,
          0.00275181537, 0.00140429579, 0.00611596089, 0.0108076232,
          0.00989410188, 0.0118234707, 0.01099989, 0.01099989,
          0.000250242854, -0.00465282239, 0., 0., 0., 0.00746348035,
          0.00287622749, 0.0023162188, 0.0023162188, 2.16840434e-18,
          -0.0104371775, -0.0117710792, -0.00771362474, -0.00557288574,
          -0.00325666671, -0.000504851399, -0.00325666671,
          -0.00757788355, -0.00156940136, 0.00825669989, 0.0135310777,
          0.0129881008, 0.0110587329, 0.00827643555, 0.00827643555,
          0.00300205825, -0.0019302346, 0., 0., 0., 0.00746348035,
          0.00287622749, 0.0023162188, 0.0023162188, 2.16840434e-18,
          -0.00350851635, -0.00342461024, -0.00771362474, -0.00539740594,
          -0.00325666671, -0.000504851399, -0.00268532871,
          -0.00268532871, -0.0045758253, 0.012197176, 0.0135310777,
          0.0108076232, 0.0110587329, 0.00634706765, 0.00827643555,
          0.00300205825, 0.000821580819, 0., 0., 0., 0.00471166521,
          -0.00260961964, 0.0023162188, 2.16840434e-18, 2.16840434e-18,
          0.00465282239, 0.00448941346, -0.00128387101, -0.00539740594,
          -0.00539740594, -0.00539740594, -0.00268532871, 0.00424333243,
          0.00894050952, 0.00813367125, 0.0157115553, 0.0108076232,
          0.0108076232, 0.00634706765, 0.005013166, 0.00300205825,
          0.000821580819, 0., 0., 0., 0.00471166521, -0.00260961964,
          0.0023162188, 2.16840434e-18, 2.16840434e-18, 0.00799793005,
          0.0101386691, 0.0124548879, 0.0124548879, 0.0103141489,
          0.0103141489, 0.0103141489, 0.0124548879, 0.0102744112,
          0.00813367125, 0.0103141489, 0.0113903387, 0.0108076232,
          0.00827643555, 0.00498480489, 0.00297369715, 0.000821580819,
          0., 0., 0., -0.00465282239, -0.00593185565, -0.00260961964,
          2.16840434e-18, 2.16840434e-18, 2.16840434e-18, 2.16840434e-18,
          2.16840434e-18, 2.16840434e-18, 2.16840434e-18, 2.16840434e-18,
          2.16840434e-18, 2.16840434e-18, 2.16840434e-18, 2.16840434e-18,
          2.16840434e-18, 2.16840434e-18, -0.00471166521, -0.00512083666,
          -0.00556474552, 0.00340929348, 0.00354503514, 0., 0., 0.,
          -0.00465282239, -0.00944037177, -0.00558331655, 2.16840434e-18,
          2.16840434e-18, 2.16840434e-18, 2.16840434e-18, 2.16840434e-18,
          2.16840434e-18, 2.16840434e-18, 2.16840434e-18, 2.16840434e-18,
          2.16840434e-18, 2.16840434e-18, 2.16840434e-18, 2.16840434e-18,
          2.16840434e-18, -0.00746348035, -0.008797382, -0.00964385923,
          -0.00442859717, 0.00354503514, 0., 0., 0., -0.00465282239,
          -0.0133953365, -0.00944037177, -0.00789953582, 2.16840434e-18,
          2.16840434e-18, 2.16840434e-18, 2.16840434e-18, 2.16840434e-18,
          2.16840434e-18, 2.16840434e-18, 2.16840434e-18, 2.16840434e-18,
          2.16840434e-18, 2.16840434e-18, 2.16840434e-18, -0.00471166521,
          -0.0157115553, -0.0108084902, -0.0126175564, -0.0093608899,
          2.83611262e-05, 0., 0., 0., -0.00465282239, -0.0133953365,
          -0.0133953365, -0.0157115553, -0.01099989, -0.000985362683,
          2.16840434e-18, 2.16840434e-18, 2.16840434e-18, 2.16840434e-18,
          2.16840434e-18, 2.16840434e-18, 2.16840434e-18, 2.16840434e-18,
          -0.00350851635, -0.0117710792, -0.0157115553, -0.0157115553,
          -0.0137821864, -0.0126175564, -0.00829633977, -0.00272345426,
          0., 0., 0., -0.00465282239, -0.0133953365, -0.0133953365,
          -0.0157115553, -0.0157115553, -0.0157115553, -0.0157115553,
          -0.010651351, -0.00395905972, -0.000185358003, 2.16840434e-18,
          -0.00572551228, -0.0117710792, -0.0157115553, -0.0157115553,
          -0.0157115553, -0.0157115553, -0.0157115553, -0.0137821864,
          -0.0126175564, -0.00557288574, -0.000504851399, 0., 0., 0., 0.,
          0., 0., 0., 0., 0., 0., 0., 0., 0., -0.00325666671,
          -0.00325666671, -0.00325666671, -0.00325666671, -0.00325666671,
          -0.00325666671, -0.00325666671, -0.00325666671, -0.00539740594,
          -0.00268532871, -0.00543714408, -0.00757788355 ]
      - [ 0., 0., 0., 0., 0., 0., 0., 0., 0., 0., 0., 0., 0., 0., 0., 0.,
          0., 0., 0., 0., 0., 0., 0., 0., 0., 0.00175506563, 0., 0., 0.,
          0., 0., 0., 0., 0., 0., 0., 0., 0., 0., 0., 0., 0., 0., 0., 0.,
          0., 0., 0., 0., 0., 0., 0., 0., 0., 0., 0., 0., 0., 0., 0., 0.,
          0., 0., 0., 0., 0., 0., 0., 0., 0., 0., 0., 0., 0., 0.,
          0.00175506563, 0., 0., 0., 0., 0., 0., 0., 0., 0.00204187538,
          3.87818545e-05, -0.000741645868, -0.00400924124, 0.00184928591,
          0.00045016536, 0.00343072717, 0., 0., 0., 0., 0., 0., 0., 0.,
          0., 0.00175506563, 0.00175506563, 0., 0., 0., -0.00391576951,
          -0.00160572457, -0.00825126655, -0.00400924124,
          -8.67361738e-19, -8.67361738e-19, -8.67361738e-19,
          -8.67361738e-19, -8.67361738e-19, -8.67361738e-19,
          -8.67361738e-19, -8.67361738e-19, -0.0021844178, 0.00142549467,
          0., 0., 0., 0., 0., 0., 0.00175506563, 0.00175506563,
          0.00175506563, -0.00567083526, -0.00187389425, -0.00825126655,
          -0.00543473568, -0.00334611069, -8.67361738e-19,
          -8.67361738e-19, -8.67361738e-19, -8.67361738e-19,
          -8.67361738e-19, -8.67361738e-19, -8.67361738e-19,
          -8.67361738e-19, -8.67361738e-19, -8.67361738e-19,
          0.00648477534, -0.00192490232, 0., 0., 0., 0., 0.,
          0.00175506563, 0.0035774454, 0.00175506563, -0.0060912543,
          -0.0117121665, -0.00543473568, -0.00321970927, -8.67361738e-19,
          -8.67361738e-19, -8.67361738e-19, -8.67361738e-19,
          -8.67361738e-19, -8.67361738e-19, -8.67361738e-19,
          -8.67361738e-19, -8.67361738e-19, -8.67361738e-19,
          -8.67361738e-19, -8.67361738e-19, 0.00648477534, 0.0050649005,
          0., 0., 0., 0., 0.0035774454, 0.00175506563, 0.00175506563,
          -0.00391576951, -0.00225423207, -0.00477160513,
          -8.67361738e-19, -8.67361738e-19, -8.67361738e-19,
          -8.67361738e-19, -8.67361738e-19, -8.67361738e-19,
          -8.67361738e-19, -8.67361738e-19, -8.67361738e-19,
          -8.67361738e-19, -8.67361738e-19, -8.67361738e-19,
          -8.67361738e-19, -8.67361738e-19, -0.00184688263,
          0.00142549467, 0., 0., 0., 0.00175506563, 0., 0.00175506563,
          0.00698086526, 0.00827534217, 0.00387180527, -8.67361738e-19,
          -8.67361738e-19, -8.67361738e-19, -8.67361738e-19,
          -8.67361738e-19, -8.67361738e-19, -8.67361738e-19,
          -8.67361738e-19, -8.67361738e-19, -8.67361738e-19,
          -8.67361738e-19, -8.67361738e-19, -8.67361738e-19,
          -8.67361738e-19, 0.00784632005, -0.00409945566, 0.00142549467,
          0., 0., 0.00175506563, 0.00109931384, 0.0035774454,
          0.00698086526, 0.00827534217, 0.0108788414, 0.000367800792,
          0.00217548478, 0.00670304196, 0.0112845227, 0.00588556612,
          0.00175506563, 0., 0., -0.00362895988, -0.00739370892,
          -0.00502668181, -8.67361738e-19, -8.67361738e-19,
          -8.67361738e-19, -8.67361738e-19, -0.00184688263,
          0.00142549467, 0., 0., 0.0035774454, 0.00175506563,
          0.0035774454, 0.0129965339, 0.0139461774, 0.0137100779,
          0.0135247326, 0.0182300564, 0.0142577579, 0.00277250633,
          0.00175506563, 0., 0., 0., 0., -0.00362895988, -0.00153752847,
          -0.00400924124, -8.67361738e-19, -8.67361738e-19,
          -8.67361738e-19, 0.0025050377, 0.00142549467, 0., 0.,
          0.00182237965, 0.00182237965, 0.00182237965, 0.0121040195,
          0.0139461774, 0.0193809122, 0.0193809122, 0.0193809122,
          0.00903195888, 0.00175506563, 0., 0.00175506563, 0., 0., 0.,
          -0.00567083526, -0.00580444466, -0.00156293053,
          -8.67361738e-19, -8.67361738e-19, -8.67361738e-19,
          0.0025050377, 0.00543473568, 0., 0., 0.00182237965,
          0.00182237965, 0.00182237965, 0.0121040195, 0.0139461774,
          0.0193809122, 0.0193809122, 0.0193809122, 0.00808231626, 0.,
          0.000949642796, 0., 0.00175506563, 0.00175506563,
          0.00175506563, 0.00175506563, -0.00580444466, -0.00156293053,
          -8.67361738e-19, -8.67361738e-19, -8.67361738e-19,
          0.000194992725, 0.00543473568, 0., 0., 0.00116662798,
          0.00182237965, 0.00182237965, 0.0121040195, 0.0139461774,
          0.0187251605, 0.0193809122, 0.0193809122, 0.00990469567, 0.,
          0., 0.000949642796, 0.00175506563, 0.00175506563,
          0.00175506563, -0.00391576951, -0.00404937891, -0.00500191236,
          -8.67361738e-19, -8.67361738e-19, -8.67361738e-19,
          0.000194992725, 0.00543473568, 0.000408053951, 0.,
          0.00116662798, 0.00182237965, 0.00182237965, 0.0121040195,
          0.0139461774, 0.0193809122, 0.0187251605, 0.0193809122,
          0.00990469567, 0., 0., 0., 0.00270470837, 0.00175506563,
          0.00175506563, -0.00567083526, -0.00449444167, -0.00543473568,
          -8.67361738e-19, -8.67361738e-19, 0.00217548478, 0.0052176537,
          0.00543473568, 0., 0., -0.000655751734, 0.00182237965,
          0.00182237965, 0.0121040195, 0.0139461774, 0.0193809122,
          0.0187251605, 0.0193809122, 0.00990469567, 0.00175506563, 0.,
          0.00175506563, 0.00175506563, -0.00391576951, -0.00391576951,
          -0.00965292752, -0.0155839715, -0.00543473568, -8.67361738e-19,
          -8.67361738e-19, 0.00850207172, 0.0110738343, 0.00543473568,
          0., -0.00217548478, -0.00632658694, -0.00632658694,
          0.00116662798, 0.0121040195, 0.0139461774, 0.0193809122,
          0.0187251605, 0.0137100779, 0.00423386041, -0.00492462656,
          -0.0176258478, -0.0193809122, -0.0193809122, -0.0176258478,
          -0.0193809122, -0.0193809122, -0.0155839715, -0.00543473568,
          -8.67361738e-19, 0.000655751734, 0.0113492478, 0.0110738343,
          0.00325925089, -0.00217548478, -0.00217548478, -0.00567083526,
          -0.00567083526, -0.00632658694, 0.0114482678, 0.0139461774,
          0.0193809122, 0.0187251605, 0.0137100779, 0.00334134581,
          -0.00850207172, -0.0184883978, -0.0193809122, -0.0193809122,
          -0.0176258478, -0.0193809122, -0.0193809122, -0.0124000479,
          -0.00543473568, 0.00108857534, 0.0172054283, 0.0172054283,
          0.0124353785, 0.00325925089, -0.00217548478, -0.00217548478,
          -0.00567083526, -0.00567083526, -0.00567083526, 0.0103489542,
          0.0139461774, 0.0193809122, 0.0187251605, 0.0193809122,
          0.000510109356, -0.00850207172, -0.0176258478, -0.0193809122,
          -0.0193809122, -0.0176258478, -0.0176258478, -0.0175585337,
          -0.0124000479, -0.00543473568, 0.00709142908, 0.0172054283,
          0.0193809122, 0.0124353785, 0.00718980143, -0.00217548478, 0.,
          0., 0., -0.00567083526, 0.0103489542, 0.0139461774,
          0.0172054283, 0.0172054283, 0.0172054283, 0.000510109356,
          -0.00492462656, -0.0175585337, -0.0193809122, -0.0184883978,
          -0.0167333335, -0.0176258478, -0.0175585337, -0.0124000479,
          -0.00543473568, -8.67361738e-19, 0.000655751734, 0.0135247326,
          0.0142577579, 0.00718980143, 0., 0., -0.00217548478,
          -0.00217548478, -0.00217548478, 0.00250263442, 0.00609985739,
          0.0115345931, 0.0115345931, 0.0115345931, 0.000510109356,
          -0.00492462656, -0.0175585337, -0.0193809122, -0.0193809122,
          -0.0167333335, -0.0158034675, -0.0175585337, -0.0141551131,
          -0.00543473568, -8.67361738e-19, -8.67361738e-19,
          0.00283123646, 0.00840157829, 0.0101241907, 0., 0.,
          -0.00217548478, -0.00217548478, -0.00217548478, 0.00250263442,
          0.00609985739, 0.0115345931, 0.0115345931, 0.0115345931,
          0.00618094439, -0.00100885681, 0.00182237965, 0., 0.,
          -0.00426887441, -0.00674700597, -0.00850207172, -0.0123251835,
          -0.00638437876, -8.67361738e-19, -8.67361738e-19,
          -8.67361738e-19, 0.00529461494, 0.00718980143, 0.00175506563,
          0., -0.00217548478, -0.00217548478, -0.00217548478,
          0.0103489542, 0.00827534217, 0.0108788414, 0.0115345931,
          0.0115345931, 0.00501431664, 0.00116662798, 0., 0., 0.,
          0.0035774454, 0.0014019605, -0.00850207172, -0.00356308161,
          -0.00638437876, -8.67361738e-19, -8.67361738e-19,
          -8.67361738e-19, 0.003378917, 0.00718980143, 0.00175506563, 0.,
          0., 0., 0., 0.0103489542, 0.0139461774, 0.0137100779,
          0.0137100779, 0.0137100779, 0.00543473568, 0., 0., 0., 0.,
          0.00182237965, 0.00182237965, 0., -0.00356308161,
          -0.00136171759, -8.67361738e-19, -8.67361738e-19,
          -8.67361738e-19, -0.00446740305, 0.00228326395, 0.00175506563,
          0., 0., 0., 0., 0.0103489542, 0.0139461774, 0.0137100779,
          0.0137100779, 0.0137100779, 0.00543473568, 0., -0.000655751734,
          -0.000655751734, -0.00567083526, 0., 0.00116662798,
          0.00116662798, -0.00356308161, 0.00449446263, -8.67361738e-19,
          -8.67361738e-19, -8.67361738e-19, -0.00512315473, 0.0019301587,
          -0.000420419179, -0.00217548478, 0., 0., 0., 0.0103489542,
          0.0139461774, 0.0193809122, 0.0137100779, 0.0137100779,
          -0.000236099397, 0.00101744069, -0.000655751734, 0.,
          -0.00567083526, 0.00182237965, -0.000655751734,
          -0.000655751734, -0.00531814713, -0.00136171759,
          -8.67361738e-19, -8.67361738e-19, -8.67361738e-19,
          -0.00346017443, 0.0019301587, 0.0014019605, -0.000420419179,
          0., 0., 0.00136154471, 0.0103489542, 0.0139461774,
          0.0108788414, 0.0119034704, 0.0137100779, 0.00587279769,
          -0.00530914636, 0., 0., 0., 0.00116662798, 0.00116662798,
          -0.00100885681, -0.00190010155, -0.000545489835,
          -8.67361738e-19, -8.67361738e-19, -8.67361738e-19,
          -0.00346017443, 0.000980515964, 0.0014019605, 0.0014019605, 0.,
          0., 0.00136154471, 0.00417465437, 0.0117706927, 0.0108788414,
          -8.67361738e-19, -8.67361738e-19, 0.0119034704, 0.00521704601,
          -0.00329184975, 0., 0., -0.00283123646, -0.00531814713,
          -0.00241295225, -0.000608478324, -8.67361738e-19,
          -8.67361738e-19, -8.67361738e-19, -8.67361738e-19,
          0.000547680538, 0.0017636494, 0.0014019605, 0.0014019605, 0.,
          0., 0., 0.00115012948, 0.00609985739, 0.00374379405,
          -8.67361738e-19, -8.67361738e-19, -8.67361738e-19,
          -8.67361738e-19, -8.67361738e-19, -8.67361738e-19,
          -8.67361738e-19, -8.67361738e-19, -8.67361738e-19,
          -8.67361738e-19, -8.67361738e-19, -8.67361738e-19,
          -8.67361738e-19, -8.67361738e-19, -8.67361738e-19,
          0.00224190787, 0.00366502069, 0.00175506563, 0.0035774454, 0.,
          0., 0., -0.00217548478, -0.000463162374, -0.00543473568,
          -8.67361738e-19, -8.67361738e-19, -8.67361738e-19,
          -8.67361738e-19, -8.67361738e-19, -8.67361738e-19,
          -8.67361738e-19, -8.67361738e-19, -8.67361738e-19,
          -8.67361738e-19, -8.67361738e-19, -8.67361738e-19,
          -8.67361738e-19, -8.67361738e-19, 0.000681290054,
          0.00523970276, 0.00446996, 0.0035774454, 0.0035774454, 0., 0.,
          0., -0.00784632005, -0.0143589778, -0.00903195888,
          -8.67361738e-19, -8.67361738e-19, -8.67361738e-19,
          -8.67361738e-19, -8.67361738e-19, -8.67361738e-19,
          -8.67361738e-19, -8.67361738e-19, -8.67361738e-19,
          -8.67361738e-19, -8.67361738e-19, -8.67361738e-19,
          -8.67361738e-19, -0.000134560163, 0.00538319396, 0.00277250633,
          0.00175506563, 0.00182237965, 0.0035774454, 0., 0., 0., 0.,
          -0.00784632005, -0.00850279815, -0.00903195888,
          -0.000789531798, -8.67361738e-19, -8.67361738e-19,
          -8.67361738e-19, -8.67361738e-19, -8.67361738e-19,
          -8.67361738e-19, -8.67361738e-19, -8.67361738e-19,
          -8.67361738e-19, -8.67361738e-19, -0.000134560163,
          0.00153473846, 0., 0.00175506563, 0., 0., 0.00182237965, 0.,
          0., 0., 0., 0., 0., -0.00784632005, -0.00714125298,
          -0.00536693772, -8.67361738e-19, -8.67361738e-19,
          -8.67361738e-19, -8.67361738e-19, -8.67361738e-19,
          -8.67361738e-19, -8.67361738e-19, 0.00217548478, 0.00406619022,
          0.00036168893, -0.000655751734, 0., -0.00567083526, 0., 0.,
          -0.000655751734, 0., 0., 0., 0., 0., 0., 0., 0., 0.00136154471,
          0.00136154471, -0.00599039765, -0.0041427128, -0.000663130544,
          0.00217548478, -0.000194163134, 0.00237898529, 0.,
          -0.00567083526, -0.000655751734, -0.000655751734, 0., 0., 0.,
          0., 0.00182237965, 0., 0., 0.00136154471, 0., 0., 0., 0., 0.,
          0., 0., 0., 0., 0., 0., 0., 0., 0., 0., 0., 0.,
          -0.000655751734, 0., 0.00182237965, 0., 0. ]
      - [ -0.00100860593, 0., -0.00282859267, -0.00282859267,
          -0.00282859267, 0., 0., 0., 0., 0., 0., 0., 0., 0., 0., 0., 0.,
          0., 0., 0., 0., 0., 0., 0., 0., -0.000164930723,
          -0.00282859267, -0.00282859267, 0., -0.00383719848,
          -0.00282859267, -0.00282859267, 0., 0., 0., 0., 0., 0., 0., 0.,
          0., 0., 0., 0., 0., 0., 0., 0., 0., 0., -0.00282859267, 0., 0.,
          0., -0.00100860593, -0.00100860593, -0.00282859267,
          -0.00282859267, -0.00282859267, 0., 0., 0., 0., 0., 0., 0., 0.,
          0., 0., 0., 0., 0., 0., 0., 0., 0.000843675167, 0., 0., 0.,
          -0.00383719848, -0.00100860593, 0., 0., -0.00282859267, 0., 0.,
          0.00501488009, 0.004639199, -0.00234786118, -0.00443712482,
          -0.00695387367, -0.00851958431, 0., 0., 0., 0., 0., 0., 0., 0.,
          -0.00198491756, 0.000843675167, -0.00100860593, -0.00383719848,
          -0.00383719848, -0.000164930723, -0.000164930723,
          -0.000164930723, 0.00408274727, 0.0088536907, 0.0088536907,
          0.0088536907, 0.00316269882, 0.00316269882, 4.33680869e-19,
          4.33680869e-19, 0.00944859628, 0.00532804802, 0.00156571076,
          0., 0., 0., 0., 0., 0., 0.000751362648, 0.000843675167,
          -0.00198491756, -0.00100860593, -0.000164930723,
          -0.000164930723, 0.00299611478, 0.00509135332, 0.0088536907,
          0.0106736775, 0.0088536907, 0.00775277242, 0.00316269882,
          0.00316269882, 0.00316269882, 4.33680869e-19, 0.0106736775,
          0.0116822831, 0.00795770064, 0.00215697312, 0., 0., 0., 0., 0.,
          0.000751362648, 0.00253734039, 0.000843675167, 0.000843675167,
          -0.000164930723, 0.00534562953, 0.00691134017, 0.0088536907,
          0.0088536907, 0.00784508511, 0.00784508511, 0.00438778009,
          0.00316269882, 0.00316269882, 0.00316269882, 0.00336499233,
          0.0116822831, 0.0116822831, 0.0116822831, 0.00795770064,
          0.00532804802, 0., 0., 0., 0., 0.00131225924, 0.000751362648,
          0.000751362648, 0.000843675167, 0.0040047206, 0.00635423511,
          0.0116822831, 0.0116822831, 0.0116822831, 0.0088536907,
          0.00784508511, 0.00316269882, 0.00316269882, 0.00316269882,
          0.00316269882, 0.00784508511, 0.0116822831, 0.0116822831,
          0.0116822831, 0.0116822831, 0.00617172336, 0.00156571076, 0.,
          0., 0., -0.000473718508, -0.00131739373, 0.000751362648,
          0.0040047206, 0.00635423511, 0.0116822831, 0.0088536907,
          0.0116822831, 0.00784508511, 0.00784508511, 0.00316269882,
          0.00316269882, 0.00316269882, 4.33680869e-19, 0.00336499233,
          0.00784508511, 0.0106736775, 0.0116822831, 0.0116822831,
          0.0116822831, 0.0116822831, 0.00532804802, 0.00156571076, 0.,
          0., 0.000751362648, -0.000473718508, 0.00253734039,
          0.00277963933, 0.00512915384, 0.0104572019, 0.0116822831,
          0.0116822831, 0.0088536907, 0.00239219889, -0.0061101988,
          -0.00767590944, -0.0116822831, -0.0116822831, -0.00506227976,
          0.000288124051, 0.00534562953, 0.0116822831, 0.0116822831,
          0.0116822831, 0.0116822831, 0.00617172336, 0.00156571076, 0.,
          0., 0.00253734039, -0.000473718508, 0.0014045717,
          0.00512915384, 0.00503684161, 0.0115899704, 0.0116822831,
          0.0116822831, 0.00650417618, -0.0061101988, -0.00767590944,
          -0.00851958431, -0.0116822831, -0.0116822831, -0.00383719848,
          -0.00100860593, -0.00383719848, 0.00509135332, 0.0116822831,
          0.0116822831, 0.0116822831, 0.00617172336, 0.00222003693, 0.,
          0., 0.00169366517, 0.000560896529, 0.000560896529,
          0.00512915384, 0.00503684161, 0.0103648901, 0.0104572019,
          0.0116822831, 0.00101713114, -0.00767590944, -0.00851958431,
          -0.00767590944, -0.00851958431, -0.00822497904, -0.00383719848,
          -0.00100860593, -0.00383719848, 0.00352564245, 0.0088536907,
          0.0116822831, 0.0116822831, 0.00617172336, 0.00532804802, 0.,
          0., 0.00169366517, 0.00169366517, 0.000560896529,
          0.00512915384, 0.00512915384, 0.0104572019, 0.0104572019,
          0.0103648901, -0.00234786118, -0.0116822831, -0.00851958431,
          -0.00851958431, -0.00767590944, -0.00421860442,
          -0.000164930723, 0.000843675167, 0., 0.00352564245,
          0.0088536907, 0.0116822831, 0.0106736775, 0.00516311731,
          0.00532804802, 0., 0., 0.00169366517, 0.00169366517,
          0.00046858401, 0.00512915384, 0.00512915384, 0.0104572019,
          0.0104572019, 0.00704789534, -0.00056188344, -0.0116822831,
          -0.0116822831, -0.0116822831, -0.00796201732, -0.00299352338,
          -0.000164930723, 0.000843675167, 0.000843675167, 0.00352564245,
          0.00784508511, 0.00784508511, 0.00784508511, 0.00516311731,
          0.00431944244, 0., 0., 0.00169366517, 0.00178597774,
          0.00178597774, 0.00626192288, 0.00626192288, 0.0116822831,
          0.00996880047, 0.00417130487, -0.00372458226, -0.0116822831,
          -0.0116822831, -0.0116822831, -0.00470700627, 0.000843675167,
          0.000843675167, -0.00100860593, 0.00221874285, 0.00352564245,
          0.00784508511, 0.0088536907, 0.0106736775, 0.00233452488,
          0.00149084965, 0., 0., -9.23125044e-05, 0.00178597774,
          0.00178597774, 0.00626192288, 0.00626192288, 0.0115899704,
          0.00987648778, 4.33680869e-19, -0.00372458226, -0.0108386083,
          -0.0116822831, -0.00796201732, -0.0032099986, 0.000843675167,
          0.000843675167, -0.00564299384, -0.0047993185, 0.000711241446,
          0.00735668326, 0.00735668326, 0.00735668326, 0.00516311731,
          0.00149084965, -0.00383719848, 0., 0., 0., 0.00178597774,
          0.00635423511, 0.00635423511, 0.0103648901, 0.00704789534,
          4.33680869e-19, -0.00372458226, -0.00905263051, -0.0108386083,
          -0.00131739373, -0.00131739373, 0.000843675167, 0.,
          -0.00564299384, -0.0108386083, -0.00216534943, 0.00316269882,
          0.00316269882, 0.00735668326, 0.00516311731, 0.00149084965,
          -0.00383719848, -0.00383719848, 0., 0., 0., 0.00635423511,
          0.00635423511, 0.0103648901, 0.00316269882, 4.33680869e-19,
          -0.00372458226, -0.0116822831, -0.0088056922, -0.00131739373,
          -9.23125044e-05, 0.000843675167, 0., -0.00564299384,
          -0.007677563, -0.00216534943, 0.00316269882, 0.00316269882,
          0.00662000384, 0.00653818529, 0.00149084965, -0.00282859267,
          -0.00282859267, 0., 0., 0., 0.00551056024, 0.00635423511,
          0.00704789534, 4.33680869e-19, 4.33680869e-19, -0.00372458226,
          -0.00851958431, -0.000473718508, -0.00131739373,
          -0.00131739373, 0.000751362648, 0.000751362648, -0.00284841005,
          -0.007677563, -0.00216534943, 0.00316269882, 0.00316269882,
          0.00662000384, 0.00653818529, 0.00516311731, -0.00282859267,
          0., 0., 0., 0., 0.00551056024, 0.00626192288, 0.00417130487,
          4.33680869e-19, 4.33680869e-19, -0.00372458226, -0.00334744714,
          0.00046858401, -0.00131739373, -0.00131739373, -0.000473718508,
          -0.000473718508, -0.00284841005, -0.007677563, -0.00216534943,
          0.00316269882, 0.00316269882, 0.00662000384, 0.00933276862,
          0.00516311731, -0.00383719848, -0.00282859267, 0., 0., 0.,
          0.00551056024, 0.00577352103, 4.33680869e-19, 4.33680869e-19,
          4.33680869e-19, -0.00372458226, 0.000303653302, 0.00046858401,
          -0.00131739373, -0.00131739373, -0.000473718508, 0.00131225924,
          -0.00284841005, -0.00852123834, -0.00216534943, 0.00316269882,
          0.00316269882, 0.00652769115, 0.00933276862, 0.00617172336,
          -0.00383719848, -0.00282859267, 0., 0., 0., 0.00551056024,
          6.83377439e-05, 4.33680869e-19, 4.33680869e-19, 0.00316269882,
          0.00231470726, 0.000560896529, 0.000560896529, -9.23125044e-05,
          -0.00131739373, 0.00131225924, -0.000473718508, -0.00463438779,
          -0.00535853906, -0.00216534943, 0.00316269882, 0.00316269882,
          0.00652769115, 0.00933276862, 0.00617172336, -0.00198491756,
          -0.00383719848, 0., 0., 0., 0.00502215838, -0.00216534943,
          4.33680869e-19, 4.33680869e-19, 4.33680869e-19, 0.00335732219,
          0.000560896529, 0., 0., -0.00131739373, 0.00131225924,
          0.0014045717, -0.00131739373, -0.00451486418, -0.00216534943,
          0.00316269882, 0.00316269882, 0.0075362972, 0.00810768735,
          0.00617172336, 0.000843675167, -0.00282859267, 0., 0.,
          -0.000488401507, -0.000775337452, -0.00532804802,
          4.33680869e-19, 4.33680869e-19, 4.33680869e-19, 0.00532804802,
          0., 0., 0., 0., 0.00046858401, 0.00046858401, -0.00131739373,
          -0.00451486418, -0.00216534943, 0.00316269882, 0.00316269882,
          0.0075362972, 0.00810768735, 0.00617172336, 0.000843675167, 0.,
          0., 0., -0.000488401507, -0.00300902454, -0.00532804802,
          4.33680869e-19, 4.33680869e-19, 4.33680869e-19, -0.00319153629,
          -0.00851958431, -0.00851958431, -0.00851958431, -0.00851958431,
          -0.00851958431, -0.00673360704, -0.00673360704, -0.00451486418,
          -0.00216534943, 0.00316269882, 0.00316269882, 4.33680869e-19,
          -0.00234951475, -0.000847991556, -0.000473718508, 0., 0.,
          -0.000488401507, -0.00336499233, -0.00300902454,
          -0.00216534943, 0.00316269882, 4.33680869e-19, 4.33680869e-19,
          -0.00635423511, -0.00695387367, -0.00851958431, -0.00851958431,
          -0.00851958431, -0.00673360704, -0.00851958431, -0.00851958431,
          -0.00535853906, -0.00216534943, 0.00316269882, 0.00316269882,
          0.00316269882, -0.00234951475, -0.000847991556, 0.00131225924,
          0.000843675167, -0.0028765907, -0.00336499233, -0.00198992458,
          -0.00300902454, -0.00216534943, 0.00316269882, 4.33680869e-19,
          4.33680869e-19, -0.00413549226, -0.0101165725, -0.00851958431,
          -0.00851958431, -0.00851958431, -0.00673360704, -0.00673360704,
          -0.00673360704, -0.00451486418, -0.000599638559, 0.00316269882,
          0.00316269882, 0.00316269882, 0.000813184248, 0.00231470726,
          0.00131225924, 0.00253734039, -0.0028765907, -0.0028765907,
          -0.00198992458, -0.00508312648, -0.00216534943, 0.00316269882,
          0.00316269882, 4.33680869e-19, 4.33680869e-19, -0.00413549226,
          -0.00874150451, -0.0116822831, -0.00851958431, -0.00851958431,
          -0.00535853906, -0.00451486418, -0.000599638559, 0.00316269882,
          0.00316269882, 0.00316269882, 0.00316269882, 0.000813184248,
          -0.00144763011, 0.00131225924, 0.00262965285, -0.0028765907,
          -0.00336499233, -0.00336499233, -0.006458194, -0.00216534943,
          0.00316269882, 0.00316269882, 0.00316269882, 4.33680869e-19,
          4.33680869e-19, 4.33680869e-19, 4.33680869e-19, 4.33680869e-19,
          4.33680869e-19, 0.00316269882, 0.00316269882, 0.00316269882,
          0.00316269882, 0.00316269882, 0.00316269882, 0.00316269882,
          -0.00056188344, -0.000405015162, -0.000473718508,
          0.00262965285, -0.0028765907, -0.0028765907, -0.0028765907,
          -0.0028765907, 0.0023458451, 0.00347764441, 0.0088056922,
          0.0088056922, 0.0116822831, 0.0088056922, 0.0088056922,
          0.0088056922, 0.0088056922, 0.0088056922, 0.0116822831,
          0.00822497904, 0.00316269882, 4.33680869e-19, 4.33680869e-19,
          0.00316269882, 0.00801537465, 0.00297028245, 0.00131225924,
          0.00131225924, 0.0014045717, -0.0028765907, -0.0028765907,
          -0.0028765907, -0.0028765907, -0.0028765907, 0.0026339693,
          0.0088056922, 0.0088056922, 0.0088056922, 0.0088056922,
          0.00831729081, 0.00831729081, 0.00831729081, 0.00831729081,
          0.0088056922, 0.00822497904, 4.33680869e-19, 4.33680869e-19,
          4.33680869e-19, -0.00234951475, 0.00436592801, 0.00118430471,
          -0.000381406018, 0.00046858401, 0.00131225924, 0., 0.,
          -0.0028765907, -0.0028765907, -0.0028765907, -0.0028765907,
          0.0026339693, 0.00504335528, 0.00831729081, 0.00831729081,
          0.00831729081, 0.00831729081, 0.00831729081, 0.00831729081,
          0.00831729081, 0.00831729081, 0.00316269882, 0.00316269882,
          0.00287457486, -0.00056188344, -0.00419398444, -0.000381406018,
          -0.00122508116, -0.00122508116, 0.00046858401, -0.000488401507,
          -0.000488401507, -0.000488401507, 0., -0.0028765907,
          -0.00336499233, -0.00336499233, 7.14659618e-05, 0.00455495389,
          0.00831729081, 0.00831729081, 0.00831729081, 0.00831729081,
          0.00831729081, 0.00831729081, 0.00831729081, 4.33680869e-19,
          -0.00413549226, -0.0101165725, -0.0116822831, -0.00468238583,
          -0.00410167174, -0.00122508116, -0.00122508116, -0.00131739373,
          -0.000488401507, -0.000488401507, -0.000488401507,
          -0.000488401507, -0.000488401507, -0.000488401507,
          -0.000488401507, -0.00336499233, -0.00198992458,
          -0.00198992458, 7.14659618e-05, 0.00342315435, 0.00455495389,
          0.00802916661, 0.00209253491, -0.000424213853, -0.00851958431,
          -0.00851958431, -0.0116822831, -0.0116822831, -0.00468238583,
          -0.00410167174, -0.0028765907, -0.00410167174, -0.00231569423,
          0., 0., 0.00137506763, -0.000488401507, -0.000488401507,
          -0.000488401507, -0.000488401507, -0.000488401507,
          -0.000488401507, -0.000488401507, 0., -0.0028765907,
          -0.0028765907, -0.0028765907, -0.0028765907, -0.0028765907,
          -0.0028765907, -0.0028765907, -0.0028765907, -0.0028765907,
          -0.0028765907, -0.0028765907, -0.00109061308, -0.0028765907,
          -0.00410167174 ]
      - [ -0.00334336702, -0.00334336702, -0.000649854017, 0., 0., 0.,
          0., 0.000890524941, 0.000890524941, 0.000890524941, 0., 0., 0.,
          0., 0., 0., 0., 0., 0., 0., 0., 0., 0., 0., 0., 0.00406175386,
          -0.000649854017, -0.00399322109, -0.00399322109, 0., 0., 0.,
          0., -0.00245284196, 0.000890524941, 0.000890524941, 0., 0., 0.,
          0., 0., 0., 0., 0., 0., 0., 0., 0., 0., 0., -0.00334336702,
          -0.00399322109, 0., -0.00399322109, -0.00399322109, 0., 0., 0.,
          -0.00334336702, -0.00245284196, 0.000890524941, 0., 0., 0., 0.,
          0., 0., 0., 0., 0., 0., 0., 0., 0., 0., 0.00406175386,
          -0.000649854017, -0.00334336702, -0.00399322109,
          -0.00733781746, -0.0179400239, -0.0182302445, -0.0182302445,
          -0.0182302445, -0.0166714769, -0.0127423117, -0.00845345203,
          -6.50521303e-19, -0.0020684246, -0.00679842243, -0.00708864443,
          -0.0173397195, -0.0182302445, -0.0182302445, -0.0182302445,
          -0.0108924275, -0.00596694555, -0.0021067278, -0.0021067278,
          0., 0.00406175386, 0.00406175386, -0.000649854017,
          -0.00399322109, -0.00733781746, -0.0141684916, -0.0110020759,
          -0.00979511626, -0.00410147617, -6.50521303e-19,
          -6.50521303e-19, -6.50521303e-19, -6.50521303e-19,
          -6.50521303e-19, -6.50521303e-19, -6.50521303e-19,
          -6.50521303e-19, -0.00679842243, -0.0107937753, -0.0182302445,
          -0.0142357945, -0.00596694555, -0.0021067278, -0.0021067278,
          -0.0021067278, 0.00406175386, 0.00406175386, 0.00341190002,
          -0.000649854017, -0.00260782009, -0.00950489379,
          -0.00654594461, -0.00410147617, -6.50521303e-19,
          -6.50521303e-19, -6.50521303e-19, -6.50521303e-19,
          -6.50521303e-19, -6.50521303e-19, -6.50521303e-19,
          -6.50521303e-19, -6.50521303e-19, -6.50521303e-19,
          -0.00102529244, -0.0105035538, -0.0142357945, -0.00596694555,
          -0.0021067278, -0.0021067278, -0.0021067278, 0.0019550263,
          0.00269710086, 0.00341190002, 0.00341190002, -0.00206910446,
          -0.00654594461, -0.00410147617, -6.50521303e-19,
          -6.50521303e-19, -6.50521303e-19, -6.50521303e-19,
          -6.50521303e-19, -6.50521303e-19, -6.50521303e-19,
          -6.50521303e-19, -6.50521303e-19, -6.50521303e-19,
          -6.50521303e-19, -6.50521303e-19, -0.00102529244,
          -0.00650910288, -0.00596694555, -0.0021067278, -0.0021067278,
          -0.0021067278, 0.00269710086, 0.0019550263, 0.0019550263,
          0.00130517234, 0.00316573586, -0.00654594461, -6.50521303e-19,
          -6.50521303e-19, -6.50521303e-19, -6.50521303e-19,
          -6.50521303e-19, -6.50521303e-19, -6.50521303e-19,
          -6.50521303e-19, -6.50521303e-19, -6.50521303e-19,
          -6.50521303e-19, -6.50521303e-19, -6.50521303e-19,
          -6.50521303e-19, -0.00190863316, 0.00175974588, -0.0021067278,
          -0.0021067278, -0.0021067278, 0.0019550263, -0.0021067278,
          0.0019550263, 0.00427949848, 0.00223975535, -6.50521303e-19,
          -6.50521303e-19, -6.50521303e-19, -6.50521303e-19,
          0.0116134454, 0.0182302445, 0.0182302445, 0.0182302445,
          0.0148868784, 0.0148868784, 0.0182302445, 0.0182302445,
          0.0182302445, 0.0182302445, 0.0182302445, 0.0161235183,
          0.00561996363, 0.000337740756, -0.0021067278, -0.0021067278,
          0.0019550263, 0.0019550263, 0.00269710086, 0.00427949848,
          0.00223975535, -6.50521303e-19, -6.50521303e-19,
          -6.50521303e-19, -6.50521303e-19, 0.00805375166, 0.00746468827,
          0.00341190002, -0.00334336702, -0.00334336702, -0.00267512351,
          0.00526389992, 0.0119083337, 0.0182302445, 0.0182302445,
          0.0148868784, 0.0148868784, 0.00844507851, 0.00244446844, 0.,
          0., 0.00269710086, 0.0019550263, 0.00269710086, 0.00774697214,
          0.00223975535, -6.50521303e-19, -6.50521303e-19,
          -6.50521303e-19, -0.00346747343, 0.000605465553, 0.0022452483,
          -0.000649854017, 0., 0., 0., 0.000668243505, 0.00526389992,
          0.0141287688, 0.0182302445, 0.0182302445, 0.0148868784,
          0.0128184538, 0.00349279959, -0.00334336702, 0.,
          -0.00136465323, -0.00136465323, -0.00136465323, 0.00839682575,
          0.00223975535, -6.50521303e-19, -6.50521303e-19,
          -6.50521303e-19, -0.00733232452, -0.00226482353,
          -0.00275658164, 0.00130517234, -0.000649854017, 0., 0., 0.,
          0.000668243505, 0.00805071183, 0.0182302445, 0.0182302445,
          0.0182302445, 0.0161618199, 0.00438332465, -0.00334336702, 0.,
          -0.00136465323, -0.00136465323, -0.00136465323, 0.00839682575,
          0.00223975535, -6.50521303e-19, -6.50521303e-19,
          -6.50521303e-19, -0.00733232452, -0.00661679963,
          -0.00275658164, -0.00275658164, 0.00130517234, 0.00130517234,
          -0.00856360421, -0.0108238943, -0.00792809669, 0.0072225444,
          0.0148868784, 0.0182302445, 0.0182302445, 0.012456689,
          0.00772669166, -0.00334336702, 0., -0.00371729839,
          -0.00136465323, -0.00136465323, 0.00839682575, 0.00223975535,
          -6.50521303e-19, -6.50521303e-19, -6.50521303e-19,
          -0.00659024995, -0.00661679963, -0.00275658164, -0.0149855949,
          -0.0141684916, -0.0141684916, -0.0141684916, -0.0141684916,
          -0.0135002481, -0.00654594461, 0.00591743318, 0.0102837589,
          0.0182302445, 0.012456689, 0.00772669166, 0.0002240334, 0.,
          -0.00371729839, -0.00136465323, -0.00136465323, 0.00839682575,
          0.00223975535, -6.50521303e-19, -6.50521303e-19,
          -6.50521303e-19, -0.00659024995, -0.0182302445, -0.0182302445,
          -0.0182302445, -0.0141684916, -0.0141684916, -0.0141684916,
          -0.0179400239, -0.0124749551, -0.00683616661, -6.50521303e-19,
          0.00285754167, 0.00891993288, 0.012456689, 0.00438332465, 0.,
          0.000890524941, -0.00445937319, -0.00136465323, -0.00371729839,
          0.0060441806, -0.00011288996, -6.50521303e-19, -6.50521303e-19,
          -6.50521303e-19, -0.00659024995, -0.0141684916, -0.0182302445,
          -0.0141684916, -0.0141684916, -0.0141684916, -0.0141684916,
          -0.0182302445, -0.0135002481, -0.00683616661, -6.50521303e-19,
          -6.50521303e-19, 0.0033445966, 0.00785356946, 0.00561996363,
          -0.00334336702, 0., -0.00445937319, -0.00445937319,
          -0.00371729839, 0.0060441806, -0.00011288996, -6.50521303e-19,
          -6.50521303e-19, -6.50521303e-19, -0.00659024995,
          -0.0134264166, -0.0141684916, -0.0182302445, -0.0182302445,
          -0.0141684916, -0.0182302445, -0.0182302445, -0.0135002481,
          -0.00683616661, -6.50521303e-19, -6.50521303e-19,
          -6.50521303e-19, 0.0058398894, 0.00472943904, -0.00305314502,
          -0.00334336702, -0.00731691439, -0.00731691439, -0.00445937319,
          0.0060441806, -0.00011288996, -6.50521303e-19, -6.50521303e-19,
          -6.50521303e-19, -0.00659024995, -0.0182302445, -0.0182302445,
          -0.0182302445, -0.0182302445, -0.0141684916, -0.0182302445,
          -0.0182302445, -0.011732881, -0.00654594461, -6.50521303e-19,
          -6.50521303e-19, -6.50521303e-19, 0.00193969999, 0.00390127162,
          0.000290222088, 0., -0.00703220954, -0.00445937319,
          -0.00445937319, 0.00433507189, 0.00928735081, 0.0104262754,
          0.00386021798, 0.0013638261, -0.00659024995, -0.0182302445,
          -0.00748052727, -0.00384145067, -0.0021067278, 0.00406175386,
          0.00406175386, 9.22205072e-05, -0.000840453198, -0.00518211816,
          -6.50521303e-19, -6.50521303e-19, -6.50521303e-19,
          0.00193969999, 0.00629480137, 0., 0., -0.00703220954,
          -0.00703220954, -0.00703220954, 0.0017622353, 0.00671451446,
          0.0135506811, 0.0158776008, 0.0130200582, 0.00336991646,
          0.0020815332, -0.00136465323, -0.0021067278, 0., 0.00406175386,
          0.00406175386, 0.00074207451, 0.00584751042, 0.00405626092,
          -6.50521303e-19, -6.50521303e-19, -6.50521303e-19,
          0.00219471939, 0.00428112084, 0.000290222088, 0.,
          -0.00703220954, -0.00703220954, -0.00703220954,
          -0.000590409967, 0.00646859687, 0.0133047635, 0.0104472218,
          0.0133047635, 0.00671451306, 0.00480382843, 0.00074207451, 0.,
          0., 0.00406175386, 0.00480382843, 0.00074207451, 0.00178575644,
          0.00316573586, -6.50521303e-19, -6.50521303e-19,
          -6.50521303e-19, -0.00400618929, 0.00494936435, -0.0003596319,
          0., -0.00988975167, -0.00492548198, -0.00492548198,
          0.00151631772, 0.00646859687, 0.0133047635, 0.0133047635,
          0.0133047635, 0.00671451306, -0.00418340741, -0.00183076214,
          0., 0., 0.00480382843, 0.00406175386, 0., 0.00111751293,
          0.00316573586, -6.50521303e-19, -6.50521303e-19,
          -6.50521303e-19, -0.00400618929, 0.00428112084, 0.00370212202,
          0., -0.00492548198, -0.00778302364, -0.00492548198,
          0.00151631772, 0.00646859687, 0.0133047635, 0.0133047635,
          0.0104472218, 0.00597243849, -0.00418340741, -0.00492548198,
          -0.00257283659, 0., 0.00480382843, 0.00480382843, 0.,
          0.00517926691, 0.000592899334, -6.50521303e-19,
          -6.50521303e-19, -6.50521303e-19, -0.00400618929,
          0.00428112084, 0.00435197633, -0.000649854017, -0.00492548198,
          -0.00235264516, -0.00235264516, 0.00151631772, 0.00646859687,
          0.0133047635, 0.0133047635, 0.0104472218, -0.000946856919,
          -0.00778302364, -0.00492548198, -0.00492548198, -0.00257283659,
          -0.00183076214, -0.00183076214, -0.00257283659, 0.0032562844,
          0.000592899334, -6.50521303e-19, -6.50521303e-19,
          -6.50521303e-19, -0.00400618929, 0.00428112084, 0.00435197633,
          0.000290222088, -0.00235264516, -0.00235264516, -0.00235264516,
          0.0040891543, 0.00904143322, 0.0158776008, 0.0133047635,
          0.0130200582, 0.00162597967, -0.00778302364, -0.00492548198,
          -0.00492548198, -0.00492548198, -0.00257283659, -0.00183076214,
          -0.00183076214, 0.0032562844, 0.000592899334, -6.50521303e-19,
          -6.50521303e-19, -6.50521303e-19, -0.00400618929, 0.0031002129,
          0.00435197633, 0.000290222088, -0.00235264516, -0.00235264516,
          -0.00235264516, 0.0040891543, 0.00904143322, 0.0130200582,
          0.0130200582, 0.0130200582, 0.00162597967, -0.00298975175,
          -0.00778302364, -0.00778302364, -0.00492548198, -0.00418340741,
          -0.00543037849, -0.00257283659, -0.000805469695,
          0.000592899334, -6.50521303e-19, -6.50521303e-19,
          -6.50521303e-19, -0.00400618929, 0.00245035882, 0.00509405043,
          0.00406175386, 0., -0.00235264516, -0.00132735283,
          0.0040891543, 0.00904143322, 0.0130200582, 0.0125330035,
          0.0130200582, 0.00790460873, -0.00298975175, -0.00521018682,
          -0.00778302364, -0.00521018682, -0.00161057082, -0.00418340741,
          -0.00468830392, -8.83123648e-05, 0.00102586846,
          -6.50521303e-19, -6.50521303e-19, -6.50521303e-19,
          0.00219471939, 0.00245035882, 0.00187136, 0.00223099184, 0.,
          0., -0.00132735283, -0.000487579324, 0.00904143322,
          0.0125330035, 0.00596694555, -6.50521303e-19, 0.00399322109,
          0.00790460873, -0.00196445943, -0.00521018682, -0.00521018682,
          -0.00235264516, -0.00344281993, -0.00213989988, 0.00102586846,
          -6.50521303e-19, -6.50521303e-19, -6.50521303e-19,
          -6.50521303e-19, 0.00219471939, 0.00300692604, 0.00223099184,
          0.00223099184, 0., 0., 0., -0.00151287182, 0.00618389156,
          0.00853978191, 0.00197939388, -6.50521303e-19, -6.50521303e-19,
          -6.50521303e-19, -6.50521303e-19, -6.50521303e-19,
          -6.50521303e-19, -6.50521303e-19, -6.50521303e-19,
          -6.50521303e-19, -6.50521303e-19, -6.50521303e-19,
          -6.50521303e-19, -6.50521303e-19, -6.50521303e-19,
          0.00261315773, 0.00399957458, 0.00148891739, 0.00223099184, 0.,
          0., 0., -0.00235264516, -0.00242185802, -0.000869220996,
          -6.50521303e-19, -6.50521303e-19, -6.50521303e-19,
          -6.50521303e-19, -6.50521303e-19, -6.50521303e-19,
          -6.50521303e-19, -6.50521303e-19, -6.50521303e-19,
          -6.50521303e-19, -6.50521303e-19, -6.50521303e-19,
          -6.50521303e-19, -6.50521303e-19, -0.000681211706,
          0.0031002129, 0.00480382843, 0.00223099184, 0.00223099184, 0.,
          0., 0., -0.00235264516, -0.00938940514, -0.0117884455,
          -6.50521303e-19, -6.50521303e-19, -6.50521303e-19,
          -6.50521303e-19, -6.50521303e-19, -6.50521303e-19,
          -6.50521303e-19, -6.50521303e-19, -6.50521303e-19,
          -6.50521303e-19, -6.50521303e-19, -6.50521303e-19,
          -6.50521303e-19, -0.00316641573, 0.00257832976, 0.00628218893,
          0.00406175386, 0.00074207451, 0.00480382843, 0., 0., 0., 0.,
          0., -0.00938940514, -0.00980905164, -6.50521303e-19,
          -6.50521303e-19, -6.50521303e-19, -6.50521303e-19,
          -6.50521303e-19, -6.50521303e-19, -6.50521303e-19,
          -6.50521303e-19, -6.50521303e-19, -6.50521303e-19,
          -6.50521303e-19, -0.00316641573, 0.00332040433, 0.,
          0.00406175386, 0., 0., 0.00074207451, 0., 0., 0., 0., 0., 0.,
          -0.00283970032, -0.00782539696, -0.00142013491,
          -6.50521303e-19, -6.50521303e-19, -6.50521303e-19,
          -6.50521303e-19, -6.50521303e-19, -6.50521303e-19,
          -6.50521303e-19, -6.50521303e-19, -0.00112222845,
          -0.00360531942, -0.00235264516, -0.00235264516, 0., 0., 0., 0.,
          0., 0., 0., 0., 0., 0., 0., -0.00235264516, -0.00132735283,
          -0.00181440788, -0.00383217609, -0.00381366443,
          -6.50521303e-19, -6.50521303e-19, -0.000983561273,
          -0.00245151436, -0.00521018682, -0.00235264516, -0.00235264516,
          -0.00521018682, -0.00235264516, 0., 0., -0.00285754167,
          -0.0021154671, 0., 0., 0.00102529244, 0., 0., 0., 0., 0., 0.,
          -0.00235264516, -0.00235264516, -0.00235264516, -0.00235264516,
          -0.00235264516, -0.00235264516, -0.00235264516, -0.00521018682,
          -0.00235264516, -0.00235264516, -0.00235264516, -0.00235264516,
          -0.00235264516, 0.00074207451, -0.00285754167, 0. ]
      - [ 0., 0., -0.00608665729, -0.00608665729, -0.00608665729, 0., 0.,
          0., 0., 0., 0., 0., 0., 0., 0., 0., 0., 0., 0., 0., 0., 0., 0.,
          0., 0., 0.00751207676, -0.00608665729, -0.00608665729,
          -0.00608665729, -0.00608665729, 0., 0., 0., 0., -0.00153834734,
          0., 0., 0., 0., 0., 0., 0., 0., 0., 0., 0., 0., 0., 0., 0., 0.,
          0., -0.00608665729, -0.00608665729, 0., 0., -0.00153834734, 0.,
          0., 0., 0., 0., 0., 0., 0., 0., 0., 0., 0., 0., 0., 0., 0., 0.,
          0., 0.00751207676, 0., 0., 0., 0., 0., 0., 0., -0.00153834734,
          -0.00386565714, -0.0095683597, 0.000806832337, 0.00266049476,
          -0.0114134289, -0.0134504484, -0.0093243653, -0.00153834734,
          0., 0., 0., 0., 0., 0., 0., 0., 0.00751207676, 0.00751207676,
          0., 0., 0., 0.00751207676, 0.00949139427, -0.00237625651,
          0.00147937157, -4.33680869e-19, -4.33680869e-19,
          -4.33680869e-19, -4.33680869e-19, -4.33680869e-19,
          -4.33680869e-19, -4.33680869e-19, -4.33680869e-19,
          -0.0220878664, -0.00791344047, -0.00685335463, 0., 0., 0., 0.,
          0., 0.00751207676, 0.00751207676, 0.00751207676, 0.,
          0.00973307714, 0.00562573737, 0.00509767933, -0.0038929747,
          -4.33680869e-19, -4.33680869e-19, -4.33680869e-19,
          -4.33680869e-19, -4.33680869e-19, -4.33680869e-19,
          -4.33680869e-19, -4.33680869e-19, -4.33680869e-19,
          -4.33680869e-19, -0.00599134434, -0.0154297659, -0.012336717,
          0., 0., 0., 0., 0.00751207676, 0.00751207676, 0.00751207676,
          0.00751207676, 0.00364641938, 0.00689555937, 0.00220373482,
          -4.33680869e-19, -4.33680869e-19, -4.33680869e-19,
          -4.33680869e-19, -4.33680869e-19, -4.33680869e-19,
          -4.33680869e-19, -4.33680869e-19, -4.33680869e-19,
          -4.33680869e-19, -4.33680869e-19, -4.33680869e-19,
          -0.00599134434, -0.024067184, -0.012336717, 0., 0., 0.,
          0.00751207676, 0.00751207676, 0.00751207676, 0.00751207676,
          0.00971899927, -0.000380168814, -4.33680869e-19,
          -4.33680869e-19, -4.33680869e-19, -4.33680869e-19,
          -4.33680869e-19, -4.33680869e-19, -4.33680869e-19,
          -4.33680869e-19, -4.33680869e-19, -4.33680869e-19,
          -4.33680869e-19, -4.33680869e-19, -4.33680869e-19,
          -4.33680869e-19, -0.00177401619, -0.00023954724, 0., 0., 0.,
          0.00751207676, 0., 0.00751207676, 0.0143963238, 0.00134111475,
          -4.33680869e-19, -4.33680869e-19, -4.33680869e-19,
          -4.33680869e-19, -4.33680869e-19, -4.33680869e-19,
          -4.33680869e-19, -4.33680869e-19, -4.33680869e-19,
          -4.33680869e-19, -4.33680869e-19, -4.33680869e-19,
          -4.33680869e-19, -4.33680869e-19, -4.33680869e-19,
          0.0211877208, 0.0109956022, 0., 0., 0., 0.00751207676,
          0.00751207676, 0.00751207676, 0.00793267693, 0.00147937157,
          -4.33680869e-19, -4.33680869e-19, -4.33680869e-19,
          -4.33680869e-19, -0.00967086013, -0.00466926396, 0.00142541924,
          -0.00608665729, -0.00608665729, -0.00386565714,
          -0.000686886371, 0.0102985054, 0.012336717, 0.000443645607,
          0.00895739067, 0.0246142372, 0.0185076799, 0.000138256801, 0.,
          0., 0.00751207676, 0.00751207676, 0.00751207676, 0.00896611903,
          0.00128206541, -4.33680869e-19, -4.33680869e-19,
          -4.33680869e-19, 0.000504905183, -0.00616016192, 0.00142541924,
          -0.00608665729, -0.00608665729, -0.00608665729, -0.00608665729,
          -0.00386565714, 0.00539977103, 0.0179805271, 0.020974135,
          0.0274377819, 0.0350627862, 0.0227079969, 0.010229581,
          -0.00153834734, -0.00153834734, 0., 0., 0., 0.00896611903,
          -0.000380168814, -4.33680869e-19, -4.33680869e-19,
          -4.33680869e-19, 8.43045273e-05, 0.00142541924, -0.00608665729,
          0.00142541924, -0.00608665729, -0.00608665729, -0.00608665729,
          -0.00608665729, 0.00222100015, 0.024067184, 0.0289761294,
          0.0350627862, 0.0350627862, 0.0227079969, 0.0109956022,
          -0.00153834734, -0.00153834734, 0., 0., 0., 0.00896611903,
          -0.000380168814, -4.33680869e-19, -4.33680869e-19,
          -4.33680869e-19, 8.43045273e-05, -0.00608665729,
          -0.00608665729, -0.00608665729, 0.00751207676, 0.00142541924,
          0.00142541924, 0.00142541924, -0.00386565714, 0.0179805271,
          0.0289761294, 0.0289761294, 0.0350627862, 0.0207286794,
          0.00945725571, -0.00153834734, -0.00153834734, 0., 0., 0.,
          0.00896611903, -0.000577474886, -4.33680869e-19,
          -4.33680869e-19, -4.33680869e-19, 8.43045273e-05, 0.,
          -0.00608665729, -0.00608665729, -0.00471825385, -0.00503822742,
          -0.0195236076, -0.0189132914, -0.0143903252, 0.0159236807,
          0.0289761294, 0.0289761294, 0.0350627862, 0.0207286794,
          0.00945725571, -0.00153834734, -0.00153834734, 0., 0., 0.,
          0.00896611903, -0.000577474886, -4.33680869e-19,
          -4.33680869e-19, -4.33680869e-19, 0.00617096201, 0.,
          -0.0156332776, -0.0247829147, -0.0275507104, -0.0275507104,
          -0.0275507104, -0.0350627862, -0.0206664614, -0.0109956022,
          0.00863741711, 0.0170830563, 0.0350627862, 0.0207286794,
          0.0109956022, -0.00153834734, 0., 0., 0., 0., 0.00896611903,
          -0.000577474886, -4.33680869e-19, -4.33680869e-19,
          -4.33680869e-19, -0.0165551063, -0.0275507104, -0.0350627862,
          -0.0275507104, -0.0275507104, -0.0275507104, -0.0275507104,
          -0.0350627862, -0.0253297091, -0.0109956022, -4.33680869e-19,
          0.00863741711, 0.0166394114, 0.0207286794, 0.0109956022, 0.,
          0., 0., 0., 0., 0.00896611903, -0.000577474886,
          -4.33680869e-19, -4.33680869e-19, -4.33680869e-19,
          -0.0165551063, -0.0275507104, -0.0275507104, -0.0350627862,
          -0.0350627862, -0.0275507104, -0.0350627862, -0.0350627862,
          -0.0253297091, -0.0109956022, -4.33680869e-19, -4.33680869e-19,
          0.0104957381, 0.00976301543, 0.0109956022, 0., 0., 0., 0., 0.,
          0.00896611903, -0.000380168814, -4.33680869e-19,
          -4.33680869e-19, -4.33680869e-19, -0.0165551063, -0.0350627862,
          -0.0350627862, -0.0350627862, -0.0350627862, -0.0275507104,
          -0.0350627862, -0.0350627862, -0.0206664614, -0.0109956022,
          -4.33680869e-19, -4.33680869e-19, -4.33680869e-19,
          0.00696855178, 0.0109956022, 0., 0., 0., 0., 0., 0.00145404274,
          -0.000380168814, -4.33680869e-19, -4.33680869e-19,
          -4.33680869e-19, -0.0165551063, -0.0350627862, -0.0275507104,
          -0.0350627862, -0.0350627862, -0.0275507104, -0.0275507104,
          -0.0350627862, -0.0206664614, -0.0109956022, -4.33680869e-19,
          -4.33680869e-19, -4.33680869e-19, 0.000824878574, 0.0124210222,
          0., 0., 0., 0., 0., 0.00145404274, -0.000380168814,
          -4.33680869e-19, -4.33680869e-19, -4.33680869e-19,
          -0.0165551063, -0.0275507104, -0.00935384724, 0., 0.,
          0.00751207676, 0.00751207676, -0.00608665729, -0.00832974538,
          -0.00982185546, -4.33680869e-19, -4.33680869e-19,
          -4.33680869e-19, 0.000504905183, 0.00811140705, -0.00608665729,
          -0.00608665729, 0., 0., 0., 0.00145404274, -0.000380168814,
          -4.33680869e-19, -4.33680869e-19, -4.33680869e-19,
          2.72885609e-05, 0.00545523036, 0., 0., 0., 0.00751207676,
          0.00751207676, 0., -0.00534608308, 0.00134111475,
          -4.33680869e-19, -4.33680869e-19, -4.33680869e-19,
          0.000504905183, 0.00230530463, -0.00608665729, -0.00608665729,
          0., 0., 0., 0.00145404274, 0.000448656501, -4.33680869e-19,
          -4.33680869e-19, -4.33680869e-19, 0.00617096201, 0., 0., 0.,
          0., 0.00751207676, 0.00751207676, 0., -0.00142341014,
          0.00134111475, -4.33680869e-19, -4.33680869e-19,
          -4.33680869e-19, 0.000504905183, 8.43045273e-05, 0.00142541924,
          -0.00608665729, 0., 0., 0., 0.00145404274, 0.00230819685,
          -4.33680869e-19, -4.33680869e-19, -4.33680869e-19,
          0.00617096201, 0., 0., 0., 0., 0.00751207676, 0.00751207676,
          0., 0.0121753234, 0.00134111475, -4.33680869e-19,
          -4.33680869e-19, -4.33680869e-19, 0.000504905183,
          8.43045273e-05, 0.00751207676, 0., 0., 0., 0., 0.00145404274,
          0.00216994015, -4.33680869e-19, -4.33680869e-19,
          -4.33680869e-19, -0.00134111475, 0., 0., 0., 0., 0., 0., 0.,
          0.0126451068, 0.00134111475, -4.33680869e-19, -4.33680869e-19,
          -4.33680869e-19, 0.000504905183, 0.00617096201, 0.00751207676,
          0., 0., 0., 0., 0.00145404274, 0.00216994015, -4.33680869e-19,
          -4.33680869e-19, -4.33680869e-19, -0.00134111475, 0., 0., 0.,
          0., 0., 0., 0., 0.0121753234, 0.00134111475, -4.33680869e-19,
          -4.33680869e-19, -4.33680869e-19, -0.00257806783,
          0.00617096201, 0.00751207676, 0., 0., 0., 0., 0.00177401619,
          0.00230819685, -4.33680869e-19, -4.33680869e-19,
          -4.33680869e-19, -0.00134111475, 0., 0., 0., 0., 0., 0., 0.,
          -0.00148042617, 0.00134111475, -4.33680869e-19,
          -4.33680869e-19, -4.33680869e-19, -0.00231997482,
          0.00617096201, 0.00751207676, 0.00751207676, 0., 0.,
          0.00466324715, 0.00177401619, 0.00230819685, -4.33680869e-19,
          -4.33680869e-19, -4.33680869e-19, -0.00210618787,
          -0.00334253302, 0., 0., 0., 0., 0., 0., 0.000807253644,
          -0.000715731701, -4.33680869e-19, -4.33680869e-19,
          -4.33680869e-19, -0.00231997482, 8.43045273e-05, 0.00751207676,
          0.00751207676, 0., 0., 0.00466324715, 0.00171700004,
          0.00216994015, -4.33680869e-19, -4.33680869e-19,
          -4.33680869e-19, -4.33680869e-19, -0.00210618787,
          -0.00597628625, 0., 0., 0., 0.00466324715, 0.00270982808,
          -0.000577474886, -4.33680869e-19, -4.33680869e-19,
          -4.33680869e-19, -4.33680869e-19, 0.000824878574,
          0.00559348706, 0.00751207676, 0.00142541924, 0., 0., 0.,
          0.00348876487, 0.00216994015, -4.33680869e-19, -4.33680869e-19,
          -4.33680869e-19, -4.33680869e-19, -4.33680869e-19,
          -4.33680869e-19, -4.33680869e-19, -4.33680869e-19,
          -4.33680869e-19, -4.33680869e-19, -4.33680869e-19,
          -4.33680869e-19, -4.33680869e-19, -4.33680869e-19,
          -4.33680869e-19, -4.33680869e-19, 0.00617096201, 0.00765033346,
          0.00751207676, 0.00751207676, 0., 0., 0., 0., -0.00020530184,
          0.000310399686, -4.33680869e-19, -4.33680869e-19,
          -4.33680869e-19, -4.33680869e-19, -4.33680869e-19,
          -4.33680869e-19, -4.33680869e-19, -4.33680869e-19,
          -4.33680869e-19, -4.33680869e-19, -4.33680869e-19,
          -4.33680869e-19, -4.33680869e-19, -4.33680869e-19,
          -0.00426685531, 0.00999291148, 0.00751207676, 0.00751207676,
          0.00751207676, 0., 0., 0., 0., 0.00216066744, -0.0053421366,
          0.00117374747, -4.33680869e-19, -4.33680869e-19,
          -4.33680869e-19, -4.33680869e-19, -4.33680869e-19,
          -4.33680869e-19, -4.33680869e-19, -4.33680869e-19,
          -4.33680869e-19, -4.33680869e-19, -4.33680869e-19,
          -4.33680869e-19, -0.00330741541, 0.00617096201, 0.00751207676,
          0.00751207676, 0., 0.00751207676, 0., 0., 0., 0., 0.,
          0.00216066744, -0.0053421366, -0.00297235628, -4.33680869e-19,
          -4.33680869e-19, -4.33680869e-19, -4.33680869e-19,
          -4.33680869e-19, -4.33680869e-19, -4.33680869e-19,
          -4.33680869e-19, -4.33680869e-19, -4.33680869e-19,
          -0.00197931798, 0.00734470924, 0., 0.00751207676, 0., 0., 0.,
          0., 0., 0., 0., 0., 0., 0., -0.00409553759, 0.000310399686,
          -4.33680869e-19, -4.33680869e-19, -4.33680869e-19,
          -4.33680869e-19, -4.33680869e-19, -4.33680869e-19,
          -4.33680869e-19, -4.33680869e-19, 0.00344825676,
          -0.00172128354, 0., 0., 0., 0., 0., 0., 0., 0., 0., 0., 0., 0.,
          0., 0., 0.00466324715, 0.00466324715, -0.00326671218,
          -0.00720167672, -0.00206807815, -4.33680869e-19,
          -0.00274448935, 0.0029419635, 0., 0., 0., 0., 0., 0., 0., 0.,
          0., 0., 0., 0.00466324715, 0., 0., 0., 0., 0., 0., 0., 0., 0.,
          0., 0., 0., 0., 0., 0., 0., 0., 0., 0., 0., 0., 0. ]
      - [ 0., 0., -0.00149462873, 0., 0., 0., 0., 0.000671724556,
          0.000671724556, 0.000671724556, 0., 0., 0., 0., 0., 0., 0., 0.,
          0., 0., 0., 0., 0., 0., 0., 0.000480944727, -0.00149462873, 0.,
          0., 0., 0., 0., -0.00149462873, 0.000671724556, 0.000671724556,
          0.000671724556, 0., 0., 0., 0., 0., 0., 0., 0., 0., 0., 0., 0.,
          0., 0., -0.00149462873, -0.00149462873, 0., 0., 0., 0., 0., 0.,
          0., 0.000671724556, 0.000671724556, 0., 0., 0., 0., 0., 0., 0.,
          0., 0., 0., 0., 0., 0., 0., 0.000480944727, -0.00149462873,
          -0.00149462873, -0.00149462873, -0.00823093206, -0.0106317494,
          -0.0106317494, -0.0106317494, -0.0106317494, -0.00996002462,
          -0.00668098032, -0.0020561174, 3.46944695e-18, -0.00309758447,
          -0.00507315807, -0.00507315807, -0.00996002462, -0.0106317494,
          -0.0106317494, -0.0106317494, -0.0106317494, -0.00701230671,
          -0.00240081688, 0., 0., 0.00197557337, 0.00197557337,
          -0.00149462873, -0.00149462873, -0.00823093206, -0.00865617581,
          -0.00595844863, -0.00580315897, -8.05440068e-05,
          3.46944695e-18, 3.46944695e-18, 3.46944695e-18, 3.46944695e-18,
          3.46944695e-18, 3.46944695e-18, 3.46944695e-18, 3.46944695e-18,
          -0.00507315807, -0.00792617537, -0.0106317494, -0.0106317494,
          -0.00701230671, -0.00240081688, 0., 0., 0.00197557337,
          0.00197557337, 0.000480944727, -0.00149462873, -0.00625535892,
          -0.00580315897, -0.00203384971, -8.05440068e-05,
          3.46944695e-18, 3.46944695e-18, 3.46944695e-18, 3.46944695e-18,
          3.46944695e-18, 3.46944695e-18, 3.46944695e-18, 3.46944695e-18,
          3.46944695e-18, 3.46944695e-18, 3.46944695e-18, -0.00792617537,
          -0.0106317494, -0.00701230671, -0.00240081688, 0., 0.,
          0.00197557337, 0.00507315807, 0.00197557337, 0.000480944727,
          -0.0061000688, -0.00203384971, -8.05440068e-05, 3.46944695e-18,
          3.46944695e-18, 3.46944695e-18, 3.46944695e-18, 3.46944695e-18,
          3.46944695e-18, 3.46944695e-18, 3.46944695e-18, 3.46944695e-18,
          3.46944695e-18, 3.46944695e-18, 3.46944695e-18, 3.46944695e-18,
          -0.00792617537, -0.00701230671, -0.00240081688, 0., 0.,
          0.000461668125, 0.00197557337, 0.00197557337, 0.000480944727,
          -0.000304757472, -0.00203384971, 3.46944695e-18,
          3.46944695e-18, 3.46944695e-18, 3.46944695e-18, 3.46944695e-18,
          3.46944695e-18, 3.46944695e-18, 3.46944695e-18, 3.46944695e-18,
          3.46944695e-18, 3.46944695e-18, 3.46944695e-18, 3.46944695e-18,
          3.46944695e-18, -0.00579531165, -0.00430673221, -0.00240081688,
          0., 0., -0.00263591623, -0.00461148983, 0.00197557337,
          0.00368941016, 0.000366967084, 3.46944695e-18, 3.46944695e-18,
          3.46944695e-18, 0.00673630368, 0.0106317494, 0.0106317494,
          0.0106317494, 0.0106317494, 0.0106317494, 0.0106317494,
          0.0091371201, 0.00701230671, 3.46944695e-18, 3.46944695e-18,
          3.46944695e-18, 3.46944695e-18, -0.00430673221, 0.00195330568,
          0., 0., -0.00263591623, -0.00263591623, 0.000461668125,
          -0.000922079547, 0.000366967084, 3.46944695e-18,
          3.46944695e-18, 3.46944695e-18, 0.00673630368, 0.00483643776,
          0.00392887928, 0.00197557337, 0., 0., 0., 0.00203011278,
          0.000792994222, 3.46944695e-18, 3.46944695e-18, 3.46944695e-18,
          3.46944695e-18, 0.00228033098, 0.00195330568, 0., 0.,
          0.000417259085, -0.00263591623, 0.000461668125, 0.0017756474,
          0.000366967084, 3.46944695e-18, 3.46944695e-18, 3.46944695e-18,
          0.00403857697, 0.00350285205, 0.00197557337, 0., 0., 0.,
          -0.00149462873, -0.00361944269, -0.0047061909, -8.05440068e-05,
          3.46944695e-18, 3.46944695e-18, 0.00212481385, 0.00753416494,
          0.00203384971, 0., 0., -0.00155831443, -0.00151390536,
          -0.00155831443, 0.0017756474, 0.000366967084, 3.46944695e-18,
          3.46944695e-18, 3.46944695e-18, 0.00160860643, 0.00197557337,
          0., 0.00197557337, 0., 0., -0.00149462873, -0.00361944269,
          -0.0106317494, -0.00203384971, 3.46944695e-18, 3.46944695e-18,
          0.00673630368, 0.00753416494, 0.00270557427, 0., 0.,
          -0.00155831443, -0.00155831443, -0.00155831443, 0.0017756474,
          0.000366967084, 3.46944695e-18, 3.46944695e-18, 3.46944695e-18,
          -0.0030028834, 0., 0., 0., 0.00197557337, 0.00197557337,
          0.000480944727, -0.00625535892, -0.0106317494, -0.00203384971,
          3.46944695e-18, 3.46944695e-18, 0.00673630368, 0.00468114763,
          0.00270557427, 0., 0., -0.00155831443, -0.00151390536,
          -0.00151390536, 0.00327027612, 0.00398640987, 0.00602025958,
          0.00602025958, 0.00602025958, 0.00249551795, 0., 0., 0.,
          0.00197557337, 0.00197557337, -0.00164386921, -0.00625535892,
          -0.00865617581, -0.00203384971, 3.46944695e-18, 0.00212481385,
          0.0091371201, 0.00318651902, 0.00270557427, 0.000426027138, 0.,
          -0.00155831443, -0.00151390536, -0.00151390536, 0.00331468508,
          0.00398640987, 0.00602025958, 0.00602025958, 0.00602025958,
          0.00249551795, -0.00461148983, 0., 0., 0.00197557337,
          0.000480944727, -0.00625535892, -0.0106317494, -0.00865617581,
          -0.00203384971, 3.46944695e-18, 0.00673630368, 0.0106317494,
          0.00468114763, 0.00270557427, 0., 0.000671724556,
          -0.00465589901, -0.00151390536, -0.00151390536, 0.00331468508,
          0.00398640987, 0.00602025958, 0.00602025958, 0.00602025958,
          0.00249551795, -0.00263591623, -0.00461148983, 0.00197557337,
          0.000480944727, -0.00164386921, -0.00625535892, -0.0106317494,
          -0.00865617581, -0.00203384971, 0.00212481385, 0.0091371201,
          0.0106317494, 0.00468114763, 0.00270557427, 0., 0.,
          -0.00669189449, -0.00465589901, -0.00155831443, 0.00331468508,
          0.00398640987, 0.00602025958, 0.00602025958, 0.00602025958,
          0.00249551795, 0.000461668125, -0.00263591623, -0.00461148983,
          -0.00610611867, -0.00625535892, -0.0106317494, -0.0106317494,
          -0.00865617581, -0.00203384971, 0.00673630368, 0.0106317494,
          0.0106317494, 0.00318651902, 0.00203384971, 0., 0.,
          -0.0020804049, -0.00673630368, -0.00465589901, 0.00327027612,
          0.00394200068, 0.00597585039, 0.00597585039, 0.00602025958,
          0.00249551795, -0.00461148983, -0.00461148983, -0.00461148983,
          -0.00615052739, -0.00625535892, -0.0106317494, -0.0106317494,
          -0.00555859134, 9.0964204e-05, 0.00673630368, 0.0091371201,
          0.0091371201, 0.00318651902, 0.00203384971, 0., -0.00149462873,
          -0.00212481385, -0.00673630368, -0.00673630368, 0.00129470264,
          0.00394200068, 0.00602025958, 0.00602025958, 0.00602025958,
          0.00245110877, -0.00461148983, -0.00263591623, -0.00461148983,
          -0.00823093206, -0.00625535892, -0.00865617581, -0.00753416494,
          -0.00555859134, 9.0964204e-05, 0.0091371201, 0.0091371201,
          0.0091371201, 0.00318651902, 0.00251479447, 0., 0.,
          -0.00212481385, -0.0020804049, -0.0020804049, -0.000785702199,
          0.00394200068, 0.00602025958, 0.00602025958, 0.00597585039,
          0.00245110877, 0.000461668125, -0.00151390536, -0.00465589901,
          -0.00823093206, -0.00865617581, -0.00865617581, -0.00753416494,
          -0.00555859134, 0.00470245397, 0.0091371201, 0.0091371201,
          0.0106317494, 0.00628410326, 0.00251479447, 0., 0.,
          -0.0020804049, -0.0020804049, -0.0020804049, 0.00387019664,
          0.00186159578, 0.00597585039, 0.00602025958, 0.00597585039,
          0.00249551795, 0.000461668125, -0.00151390536, -0.00823093206,
          -0.00823093206, -0.00865617581, -0.00555859134, -0.00753416494,
          -0.00540935062, 0.00331468508, 0.0091371201, 0.0106317494,
          0.0106317494, 0.00777873211, 0.00251479447, -0.00149462873, 0.,
          -0.0020804049, -0.0020804049, -0.0020804049, 0.00387019664,
          0.00647308538, 0.00389544549, 0.00597585039, 0.0105873402,
          0.00249551795, -0.00151390536, -0.00155831443, -0.00823093206,
          -0.0106317494, -0.00555859134, -0.00865617581, -0.0106317494,
          -0.00540935062, 0.00331468508, 0.00452563073, 0.00452563073,
          0.0106317494, 0.00777873211, 0.00400942331, 0.000480944727,
          -0.00149462873, -0.0020804049, -0.0020804049, -0.0020804049,
          0.00387019664, 0.00651749456, 0.00850693509, 0.00389544549,
          0.0105873402, -0.000602066633, -0.00151390536, -0.00465589901,
          -0.00823093206, -0.0106317494, -0.00555859134, -0.00555859134,
          -0.00855134428, 0.000461668125, 0.00331468508, 0.00602025958,
          0.00602025958, 0.00602025958, 0.00777873211, 0.00400942331,
          0.00197557337, -0.00149462873, -0.0020804049, -0.0020804049,
          -0.0020804049, 0.00387019664, 0.00651749456, 0.00855134428,
          0.00855134428, 0.00850693509, 0.00203384971, -0.00465589901,
          -0.00823093206, -0.0106317494, -0.0106317494, -0.00753416494,
          -0.00753416494, -0.00705671543, 0.000461668125, 0.00331468508,
          0.00602025958, 0.00602025958, 0.00602025958, 0.00316724251,
          0.00400942331, 0.00197557337, 0., -0.0020804049, -0.0020804049,
          -0.0020804049, 0.00387019664, 0.00651749456, 0.00855134428,
          0.00855134428, 0.00850693509, -4.65551457e-05, -0.00673630368,
          -0.00823093206, -0.0106317494, -0.0106317494, -0.0106317494,
          -0.00753416494, -0.00395913096, 0.000461668125, 0.00331468508,
          0.00602025958, 0.00602025958, 0.00602025958, 0.00316724251,
          0.00249551795, 0.00197557337, 0., -0.0020804049, -0.0020804049,
          -0.0020804049, 0.00387019664, 0.00651749456, 0.00855134428,
          0.00855134428, 0.00855134428, -9.0964204e-05, -0.00670365384,
          -0.00823093206, -0.0106317494, -0.0106317494, -0.00753416494,
          -0.00705671543, -0.00461148983, -0.00151390536, 0.00331468508,
          0.00602025958, 0.00602025958, 0.00602025958, 0.00316724251,
          0.00249551795, 0.000461668125, -0.00263591623, -0.0020804049,
          -0.0020804049, -0.0020804049, 0.00387019664, 0.00651749456,
          0.00855134428, 0.00855134428, 0.00855134428, 0.00255633378,
          -0.00670365384, -0.0106317494, -0.0106317494, -0.0106317494,
          -0.00753416494, -0.00395913096, -0.00151390536, 0.000461668125,
          0.00551368808, 0.00602025958, 0.00602025958, 0.00602025958,
          0.00316724251, 0.00249551795, 0.000461668125, 0.000461668125,
          -0.0020804049, -0.0020804049, -0.0020804049, -0.00192511478,
          0.00651749456, 0.00855134428, 0.00855134428, 0.00855134428,
          0.00850693509, -0.00354978465, -0.00910447072, -0.0106317494,
          -0.0106317494, -0.00705671543, -0.00155831443, 0.000461668125,
          0.00551368808, 0.00602025958, 0.00602025958, 0.00602025958,
          0.00602025958, 0.00316724251, 0.00198894669, 0.000461668125,
          0.000461668125, 0., 0., 0., 0.000155290079, 0.00859789923,
          0.0106317494, 0.00855134428, 0.00850693509, 0.00701230671,
          3.46944695e-18, 3.46944695e-18, 3.46944695e-18, 3.46944695e-18,
          0.00357503351, 0.0105873402, 0.0106317494, 0.00602025958,
          0.00602025958, 0.00602025958, 0.00597585039, 0.00602025958,
          0.00249551795, -0.00110863778, -0.00263591623, 0.000461668125,
          0., 0., 0., 0., 0.00325287459, 0.00859789923, 0.00850693509,
          0.00850693509, 0.00240081688, 3.46944695e-18, 3.46944695e-18,
          3.46944695e-18, 0.00149462873, 0.0081865238, 0.0105873402,
          0.0105873402, 0.0106317494, 0.00602025958, 0.00602025958,
          0.00602025958, 0.00316724251, 0.00249551795, 0.000461668125,
          0.000461668125, 0.000461668125, 0., 0., 0., 0., 0.,
          0.00595060131, 0.00850693509, 0.00701230671, 3.46944695e-18,
          3.46944695e-18, 3.46944695e-18, 3.46944695e-18, 0.00149462873,
          0.0106317494, 0.0105873402, 0.0105873402, 0.0106317494,
          0.0106317494, 0.0106317494, 0.0033225324, -0.000602066633,
          -0.00110863778, -0.00263591623, -0.00151390536, 0.000461668125,
          0., 0., -0.0020804049, -0.0020804049, 0., 0., 0.00382578769,
          0.00240081688, 3.46944695e-18, 3.46944695e-18, 3.46944695e-18,
          3.46944695e-18, 0.0081865238, 0.0106317494, 0.0106317494,
          0.0106317494, 0.0106317494, 0.0106317494, 0.00793402269,
          0.00710700778, -0.00461148983, -0.00263591623, -0.00461148983,
          -0.00461148983, -0.00151390536, 0., 0., -0.0020804049,
          -0.0020804049, -0.0020804049, -0.0020804049, -0.00212481385,
          -0.0080756424, -0.0011782957, 3.46944695e-18, 3.46944695e-18,
          0.00149462873, 0.0106317494, 0.0106317494, 0.00855134428,
          0.0105873402, 0.0106317494, 0.00468114763, 0.00152727857, 0.,
          0., -0.00461148983, -0.00461148983, -0.00461148983,
          -0.00461148983, 0., 0., -0.0020804049, -0.0020804049,
          -0.0020804049, -0.0020804049, -0.00361944269, -0.0106317494,
          -0.0106317494, -0.0106317494, -0.0104764588, 0.00295224926,
          0.00855134428, 0.00855134428, 0.00010873493, -0.000553126272,
          -4.44090583e-05, 0., 0., 0., 0., 0., -0.00461148983,
          -0.00461148983, -0.00151390536, 0., 0., -0.0020804049,
          -0.0020804049, -0.0020804049, -0.0020804049, -0.0020804049,
          -0.0020804049, -0.0020804049, -0.0020804049, -0.0020804049,
          -0.0020804049, -0.0020804049, -0.0020804049, -0.0020804049,
          -0.0020804049, -0.0020804049, -0.0020804049, 0., 0., 0., 0.,
          -0.00151390536, -0.00461148983, -0.00461148983 ]
      - [ 0., 0., 0., -0.00474978425, 0., 0., 0., 0., 0., 0., 0., 0., 0.,
          0., 0., 0., 0., 0., 0., 0., 0., 0., 0., 0., 0.,
          -0.000784575182, -0.00474978425, -0.00474978425, 0., 0., 0.,
          0., 0., 0., 0., 0., 0., 0., 0., 0., 0., 0., 0., 0., 0., 0., 0.,
          0., 0., 0., 0., 0., -0.00474978425, 0., 0., 0., -0.00474978425,
          0., 0., 0., 0., 0., 0., 0., 0., 0., 0., 0., 0., 0., 0., 0., 0.,
          0., 0., 0.00396520877, 0., 0., 0., 0., 0., -0.00474978425, 0.,
          0., 0.000179354014, -0.00697494857, -0.00121494371,
          -2.60622073e-05, -0.00486380234, -0.00324296253,
          -0.00840186421, -0.000952591887, 0., 0., 0., 0., 0., 0., 0.,
          0., 0.00396520877, 0.00396520877, 0., 0., 0., 0.00396520877,
          3.63610015e-05, 0.000215715016, -0.00108736032, 0.0024931801,
          2.11419424e-18, 2.11419424e-18, 2.11419424e-18, 2.11419424e-18,
          2.11419424e-18, 2.11419424e-18, 2.11419424e-18, -0.00147854188,
          0.00152284501, 0., 0., 0., 0., 0., 0., 0.00396520877,
          0.00396520877, 0.00396520877, -0.00474978425, 0.00414456287,
          0.00496549904, 0.00790301524, -0.000755405053, 2.11419424e-18,
          2.11419424e-18, 2.11419424e-18, 2.11419424e-18, 2.11419424e-18,
          2.11419424e-18, 2.11419424e-18, 2.11419424e-18, 2.11419424e-18,
          2.11419424e-18, -0.000460226787, -0.00340524479,
          -0.000952591887, 0., 0., 0., 0., 0.00396520877, 0.00836878456,
          0.00396520877, -0.000784575182, -0.000605221197, 0.0115077281,
          0.00176383741, 2.11419424e-18, 2.11419424e-18, 2.11419424e-18,
          2.11419424e-18, 2.11419424e-18, 2.11419424e-18, 2.11419424e-18,
          2.11419424e-18, 2.11419424e-18, 2.11419424e-18, 2.11419424e-18,
          2.11419424e-18, -0.000365738902, -0.00323347119,
          -0.000952591887, 0., 0., 0., 0.00836878456, 0.00396520877,
          0.00396520877, -0.000784575182, 0.00461929059, -0.00108736032,
          2.11419424e-18, 2.11419424e-18, 2.11419424e-18, 2.11419424e-18,
          2.11419424e-18, 2.11419424e-18, 2.11419424e-18, 2.11419424e-18,
          2.11419424e-18, 2.11419424e-18, 2.11419424e-18, 2.11419424e-18,
          2.11419424e-18, 2.11419424e-18, -0.00304937433, 0.000557569205,
          0., 0., 0., 0.00396520877, 0., 0.00396520877, 0.00854813866,
          0.00365335518, 0.00581322517, 2.11419424e-18, 2.11419424e-18,
          2.11419424e-18, 0.000500660099, 0.00744382944, 0.0239900164,
          0.0239900164, 0.0239900164, 0.0287398007, 0.0287398007,
          0.0104423361, 0.00581322517, 2.11419424e-18, 2.11419424e-18,
          2.11419424e-18, -0.00229947804, -0.000952591887, 0., 0.,
          0.00396520877, 0.00396520877, 0.00836878456, 0.00379835442,
          0.00136189652, 2.11419424e-18, 2.11419424e-18, 2.11419424e-18,
          0.000500660099, 0.00516871875, 0.00414456287, -0.000784575182,
          -0.00474978425, 0., 0.000179354014, 0.00276471069,
          0.0162575115, 0.0113949282, 0.00581322517, 2.11419424e-18,
          2.11419424e-18, 0.00632952107, -0.000952591887, 0., 0.,
          0.00836878456, 0.00396520877, 0.00836878456, 0.014493092,
          -0.00585488277, 2.11419424e-18, 2.11419424e-18, 2.11419424e-18,
          0.00616266672, 0.000519436842, 0.00396520877, -0.00474978425,
          -0.00474978425, -0.00474978425, 0., 0.000179354014,
          0.00276471069, 0.0115886852, 0.00581322517, 2.11419424e-18,
          2.11419424e-18, -0.00436314242, 0.000670686422, 0., 0.,
          0.00440357579, 0.00440357579, 0.00191039545, 0.00733612152,
          -0.00585488277, 2.11419424e-18, 2.11419424e-18, 9.44878775e-05,
          0.0152794635, 0.00396520877, -0.00474978425, -0.000784575182,
          -0.00474978425, -0.00474978425, -0.00474978425, 0.,
